export const flattenData = {
  "name": "FLATTEN",
  "data": [
    [
      -33.132271,
      -35.78299,
      -114.7733,
      -0.376733,
      -0.36619,
      -0.850868,
      0.03014,
      0.913213,
      -0.406367,
      -47.213348,
      -72.969841,
      -156.848587,
      -0.35998,
      -0.388218,
      -0.848352,
      0.02384,
      0.905188,
      -0.424343,
      -65.875771,
      -127.920464,
      -209.727203,
      -0.333623,
      -0.415695,
      -0.846105,
      0.015532,
      0.894982,
      -0.445832,
      -73.344437,
      -157.568665,
      -229.334549,
      -0.300642,
      -0.455491,
      -0.837939,
      0.003482,
      0.878055,
      -0.478547,
      -74.00264,
      -151.07695,
      -230.350983,
      -0.271232,
      -0.502283,
      -0.821064,
      -0.010327,
      0.85451,
      -0.519332,
      -76.868973,
      -191.958374,
      -231.995193,
      -0.240784,
      -0.55614,
      -0.795444,
      -0.025172,
      0.822859,
      -0.567687,
      -38.478096,
      -202.667999,
      -247.106766,
      -0.210697,
      -0.611652,
      -0.762554,
      -0.032286,
      0.783994,
      -0.619928,
      -41.054218,
      -241.158066,
      -246.3936,
      -0.179796,
      -0.661485,
      -0.728087,
      -0.036893,
      0.744162,
      -0.666979,
      -23.232168,
      -212.112244,
      -185.32933,
      -0.157583,
      -0.706101,
      -0.690354,
      -0.037899,
      0.702898,
      -0.71028,
      -28.531013,
      -230.954391,
      -171.325943,
      -0.134779,
      -0.747315,
      -0.650658,
      -0.041789,
      0.660352,
      -0.749793,
      -31.069653,
      -214.137344,
      -169.528824,
      -0.105619,
      -0.788466,
      -0.605943,
      -0.047318,
      0.612646,
      -0.78894,
      -44.818687,
      -253.5802,
      -224.59256,
      -0.081906,
      -0.833716,
      -0.546085,
      -0.053261,
      0.550805,
      -0.832933,
      -56.229225,
      -191.373856,
      -197.159531,
      -0.076651,
      -0.870749,
      -0.485717,
      -0.056103,
      0.490145,
      -0.869833,
      -30.818146,
      -210.851364,
      -168.256042,
      -0.074441,
      -0.896265,
      -0.437226,
      -0.054368,
      0.441438,
      -0.895643,
      -3.312072,
      -198.027924,
      -43.071083,
      -0.071988,
      -0.919599,
      -0.386206,
      -0.052453,
      0.390165,
      -0.91925,
      12.108312,
      -137.052139,
      -16.801373,
      -0.067809,
      -0.937987,
      -0.339975,
      -0.053533,
      0.343689,
      -0.937556,
      13.435014,
      -126.6138,
      -32.359886,
      -0.061948,
      -0.950626,
      -0.304094,
      -0.050064,
      0.307256,
      -0.950309
    ]
  ],
  "net": {
    "layers": [
      {
        "0": {},
        "1": {},
        "2": {},
        "3": {},
        "4": {},
        "5": {},
        "6": {},
        "7": {},
        "8": {},
        "9": {},
        "10": {},
        "11": {},
        "12": {},
        "13": {},
        "14": {},
        "15": {},
        "16": {},
        "17": {},
        "18": {},
        "19": {},
        "20": {},
        "21": {},
        "22": {},
        "23": {},
        "24": {},
        "25": {},
        "26": {},
        "27": {},
        "28": {},
        "29": {},
        "30": {},
        "31": {},
        "32": {},
        "33": {},
        "34": {},
        "35": {},
        "36": {},
        "37": {},
        "38": {},
        "39": {},
        "40": {},
        "41": {},
        "42": {},
        "43": {},
        "44": {},
        "45": {},
        "46": {},
        "47": {},
        "48": {},
        "49": {},
        "50": {},
        "51": {},
        "52": {},
        "53": {},
        "54": {},
        "55": {},
        "56": {},
        "57": {},
        "58": {},
        "59": {},
        "60": {},
        "61": {},
        "62": {},
        "63": {},
        "64": {},
        "65": {},
        "66": {},
        "67": {},
        "68": {},
        "69": {},
        "70": {},
        "71": {},
        "72": {},
        "73": {},
        "74": {},
        "75": {},
        "76": {},
        "77": {},
        "78": {},
        "79": {},
        "80": {},
        "81": {},
        "82": {},
        "83": {},
        "84": {},
        "85": {},
        "86": {},
        "87": {},
        "88": {},
        "89": {},
        "90": {},
        "91": {},
        "92": {},
        "93": {},
        "94": {},
        "95": {},
        "96": {},
        "97": {},
        "98": {},
        "99": {},
        "100": {},
        "101": {},
        "102": {},
        "103": {},
        "104": {},
        "105": {},
        "106": {},
        "107": {},
        "108": {},
        "109": {},
        "110": {},
        "111": {},
        "112": {},
        "113": {},
        "114": {},
        "115": {},
        "116": {},
        "117": {},
        "118": {},
        "119": {},
        "120": {},
        "121": {},
        "122": {},
        "123": {},
        "124": {},
        "125": {},
        "126": {},
        "127": {},
        "128": {},
        "129": {},
        "130": {},
        "131": {},
        "132": {},
        "133": {},
        "134": {},
        "135": {},
        "136": {},
        "137": {},
        "138": {},
        "139": {},
        "140": {},
        "141": {},
        "142": {},
        "143": {},
        "144": {},
        "145": {},
        "146": {},
        "147": {},
        "148": {},
        "149": {},
        "150": {},
        "151": {}
      },
      {
        "0": {
          "bias": -0.05938542565602549,
          "weights": {
            "0": 0.0010310675475283687,
            "1": 0.09230254100659713,
            "2": 0.10783321045722051,
            "3": -0.19167949558898836,
            "4": 0.16349010781907564,
            "5": -0.19318749308990696,
            "6": 0.03717974082597618,
            "7": 0.08408848583111006,
            "8": -0.15643024781710385,
            "9": -0.05109930785329195,
            "10": -0.1470341187439292,
            "11": 0.06574877612825547,
            "12": 0.06854005517411915,
            "13": 0.03681756940455089,
            "14": -0.11465210554391823,
            "15": 0.08642577553552086,
            "16": 0.01354504571010575,
            "17": 0.057217907809284096,
            "18": -0.03322458338191812,
            "19": 0.19317545260225458,
            "20": -0.00011578608267301617,
            "21": -0.14268610707387422,
            "22": -0.08977080528131522,
            "23": 0.13673876583263447,
            "24": 0.09372583345171114,
            "25": 0.049970785661440656,
            "26": 0.0424850540406274,
            "27": 0.014434929798015266,
            "28": 0.16510874241992754,
            "29": 0.18774903962637216,
            "30": -0.02683201087799073,
            "31": 0.04555252974713108,
            "32": -0.060580029608781484,
            "33": -0.006120150862488771,
            "34": 0.0017584844450449393,
            "35": -0.008482490103112627,
            "36": -0.06934792922527076,
            "37": 0.004308430611936586,
            "38": 0.19012847173822336,
            "39": 0.04814675606338879,
            "40": -0.11620375448262976,
            "41": 0.054158725464013256,
            "42": 0.15333378237319337,
            "43": 0.12400754391790972,
            "44": 0.09372719135693357,
            "45": -0.11165560728704381,
            "46": 0.004781027786146551,
            "47": -0.15170315219510933,
            "48": 0.18400653440597034,
            "49": 0.10782643908733944,
            "50": 0.09657551727187642,
            "51": 0.03440993784641329,
            "52": 0.1807691509513151,
            "53": -0.07482190213723795,
            "54": 0.08601158172745536,
            "55": -0.08958136170279384,
            "56": 0.11579077751288404,
            "57": 0.15214364467535027,
            "58": -0.01858981870820562,
            "59": 0.13092331604289636,
            "60": 0.019516099124739,
            "61": 0.13218830137290152,
            "62": 0.07308205773411597,
            "63": 0.008137156618617043,
            "64": 0.12921926503081485,
            "65": -0.004175160816326496,
            "66": 0.08297471705010494,
            "67": 0.01199605413960996,
            "68": -0.10750343647998013,
            "69": 0.1113648969590923,
            "70": 0.02005237396960536,
            "71": -0.1446122906316387,
            "72": -0.03942724249843604,
            "73": -0.047716478528401,
            "74": 0.07792984718626832,
            "75": 0.07376387347140154,
            "76": 0.06864842358042395,
            "77": 0.10239530004480407,
            "78": 0.023435125614106884,
            "79": 0.027082712036674006,
            "80": 0.1285528079294454,
            "81": 0.04477617598034821,
            "82": -0.12764256700907606,
            "83": -0.10177386877341267,
            "84": 0.13267960253492314,
            "85": 0.11592232017898302,
            "86": -0.10882623491602003,
            "87": -0.06896099762014828,
            "88": -0.16155289663525954,
            "89": 0.12121648325327047,
            "90": 0.013805863791162578,
            "91": 0.09616043127500198,
            "92": 0.07975144927045112,
            "93": -0.06228677101784804,
            "94": 0.16413564459577348,
            "95": -0.17115951338627747,
            "96": -0.07493922931715677,
            "97": 0.17188061046049763,
            "98": 0.05321107462514692,
            "99": -0.04539951424786965,
            "100": -0.07276477458280942,
            "101": -0.09284276847090919,
            "102": 0.17623072898070594,
            "103": 0.017427776365788187,
            "104": 0.029535902936379786,
            "105": -0.019291031367213118,
            "106": -0.06801451097345497,
            "107": 0.05768336104190676,
            "108": 0.09822643266194113,
            "109": -0.07540388818257589,
            "110": 0.02610780315920822,
            "111": 0.1899370738392495,
            "112": 0.18864296305989173,
            "113": 0.029542691726277024,
            "114": -0.15518402689439412,
            "115": 0.1477634651463594,
            "116": 0.11922294474903168,
            "117": 0.19270780252767888,
            "118": 0.17761819463552214,
            "119": -0.08002599568947688,
            "120": -0.09747523598870425,
            "121": 0.043501063323359936,
            "122": -0.1235379924072232,
            "123": -0.041458265896197416,
            "124": -0.09091823609931099,
            "125": -0.07112319914059083,
            "126": -0.06529681422970526,
            "127": -0.024322146772128954,
            "128": 0.009873073156225333,
            "129": 0.06047361502673648,
            "130": -0.17016804287355272,
            "131": 0.13735814913058755,
            "132": 0.1875495936656704,
            "133": -0.1330743456135221,
            "134": 0.18341720421152535,
            "135": -0.1565681414801913,
            "136": -0.04144019388205232,
            "137": 0.15357389708994754,
            "138": 0.15424310505269964,
            "139": -0.022759068849301962,
            "140": -0.12302029199240429,
            "141": -0.016408194381762324,
            "142": 0.12469034986903661,
            "143": -0.012200753096496226,
            "144": -0.1485121211850762,
            "145": 0.12297505978674121,
            "146": -0.13562947896609814,
            "147": -0.0320659720786082,
            "148": 0.12182704497473563,
            "149": 0.14973756700059346,
            "150": -0.11443623922513692,
            "151": -0.09063177694520431
          }
        },
        "1": {
          "bias": 0.02406130936847801,
          "weights": {
            "0": 0.0068322163542826365,
            "1": 0.09100906469341072,
            "2": -0.02884487009360545,
            "3": 0.0024968874771780507,
            "4": -0.19492860516379346,
            "5": 0.06241371914562653,
            "6": 0.16911744918239638,
            "7": -0.21017883442312463,
            "8": -0.16710369676920328,
            "9": -0.12988911862736,
            "10": -0.12259144596940204,
            "11": 0.08576027814271754,
            "12": -0.13456016415612382,
            "13": -0.18703570735175204,
            "14": 0.060735116915594065,
            "15": -0.154122670021318,
            "16": 0.18286581093658993,
            "17": 0.15069857251860794,
            "18": -0.035309924541614746,
            "19": 0.05896402129164192,
            "20": -0.1965025456001131,
            "21": 0.06779111697152344,
            "22": 0.04114527067543505,
            "23": -0.16152497095543294,
            "24": 0.169875896388204,
            "25": -0.015265564008294966,
            "26": 0.12364943546004542,
            "27": -0.11754454798457187,
            "28": 0.17478859430022828,
            "29": 0.16780238249622284,
            "30": 0.1021610151758727,
            "31": -0.16257785325873078,
            "32": -0.14050986057692055,
            "33": -0.10998376079878905,
            "34": 0.1259070342878065,
            "35": 0.16706929889055389,
            "36": 0.13764362872429564,
            "37": -0.19710015905565514,
            "38": 0.0773081334851465,
            "39": -0.11329297565328635,
            "40": 0.1539902612711444,
            "41": -0.06843990957879195,
            "42": -0.15807415147910625,
            "43": 0.01587074249010693,
            "44": -0.20014058578500551,
            "45": 0.15344632960666924,
            "46": -0.16672418257878546,
            "47": 0.10263057117949823,
            "48": 0.024797668175856886,
            "49": 0.12697473922387348,
            "50": 0.06581335335701688,
            "51": 0.03043503356725316,
            "52": 0.09205598779665668,
            "53": 0.017129044095985226,
            "54": 0.09469936222385478,
            "55": -0.193333605188435,
            "56": 0.1913551293333908,
            "57": -0.04350196484006173,
            "58": -0.01125071330922428,
            "59": 0.03153951765429003,
            "60": -0.018179765336780066,
            "61": 0.12477523743744218,
            "62": -0.1725872275596476,
            "63": -0.03948276673490824,
            "64": -0.04679209916135501,
            "65": -0.10828503543494541,
            "66": 0.13972347477996025,
            "67": 0.03429296891927278,
            "68": 0.17757195729943312,
            "69": 0.1863291852445207,
            "70": 0.09471839397645393,
            "71": -0.06333249694097925,
            "72": -0.05225127215896455,
            "73": -0.11186791135073738,
            "74": 0.023818189835570824,
            "75": -0.002387403879147892,
            "76": -0.15740280285281136,
            "77": -0.056313354749870634,
            "78": -0.18428767775066657,
            "79": -0.17255908753621085,
            "80": -0.020497930267002317,
            "81": 0.1442289212626441,
            "82": -0.009155931130397288,
            "83": -0.10956809598618354,
            "84": -0.08030579909939191,
            "85": 0.1714058073178609,
            "86": 0.0022536568467626038,
            "87": -0.15589758962091568,
            "88": -0.15154295353710998,
            "89": -0.1384243947953019,
            "90": 0.06566715190551813,
            "91": -0.13730435099787433,
            "92": -0.07714803214377133,
            "93": 0.14598141611914134,
            "94": -0.1452445091526554,
            "95": -0.17542447581206577,
            "96": 0.1208464020119176,
            "97": -0.08557304810675946,
            "98": -0.1744128053107237,
            "99": 0.021730619903750574,
            "100": -0.17593818189080943,
            "101": 0.1551647083452801,
            "102": -0.011674088836387627,
            "103": 0.08905340884455973,
            "104": 0.11658642331461244,
            "105": 0.005444136728981533,
            "106": 0.05734548203434217,
            "107": 0.18132455267263214,
            "108": -0.07345085061411483,
            "109": 0.07794742239844721,
            "110": -0.1347030630540728,
            "111": -0.10114746038857536,
            "112": 0.031368577449424395,
            "113": 0.04187174766925974,
            "114": -0.167937651395957,
            "115": -0.10238947584994751,
            "116": 0.01864912680505708,
            "117": 0.17591992550857133,
            "118": 0.04470188333661985,
            "119": 0.10939416301208504,
            "120": 0.044551370888170745,
            "121": 0.15174607172323384,
            "122": -0.04964049356327316,
            "123": 0.1541379347737455,
            "124": 0.16715218991411188,
            "125": -0.19318401014599992,
            "126": -0.05836976907489802,
            "127": -0.12279019800934966,
            "128": 0.07291425574955356,
            "129": -0.0912028565785778,
            "130": -0.14591133715537544,
            "131": -0.13624325763957051,
            "132": 0.0035506299753741083,
            "133": -0.16947684237422903,
            "134": 0.13587761314826885,
            "135": -0.03656995722050478,
            "136": -0.014288033141250241,
            "137": -0.19522128508323203,
            "138": -0.08044524473851253,
            "139": -0.10229550774711396,
            "140": -0.13673458367724314,
            "141": -0.1922346410768189,
            "142": -0.16135181366740858,
            "143": -0.09824712544095843,
            "144": 0.11317449376259979,
            "145": -0.08595402413059589,
            "146": 0.1345542800609132,
            "147": -0.13953415912376738,
            "148": -0.12661340570784038,
            "149": -0.0627069735966439,
            "150": 0.054515339510311116,
            "151": 0.1638831075694907
          }
        },
        "2": {
          "bias": -0.0066441401144774976,
          "weights": {
            "0": -0.11537487923178862,
            "1": 0.0713962472295101,
            "2": -0.11818120903051006,
            "3": 0.04639421854502271,
            "4": 0.0640811702415461,
            "5": 0.0907033956723156,
            "6": -0.15665106632102893,
            "7": -0.011082453791064721,
            "8": -0.10535506327950639,
            "9": -0.001889659349697309,
            "10": -0.03836761511523955,
            "11": -0.12438737933443526,
            "12": 0.15650866681034628,
            "13": 0.06653926910838076,
            "14": 0.16817508667635064,
            "15": 0.03624372357677879,
            "16": -0.024520247789440165,
            "17": 0.061249948373479766,
            "18": -0.047509000115721595,
            "19": -0.07578925101351183,
            "20": -0.06789980672492547,
            "21": 0.1868052589350864,
            "22": 0.12772080462991559,
            "23": -0.0893901034113443,
            "24": 0.048047750057901316,
            "25": -0.09239804699731775,
            "26": 0.13757700164968095,
            "27": 0.03161839382981244,
            "28": 0.10984644035912235,
            "29": -0.13401588872953382,
            "30": 0.05865766924425587,
            "31": 0.11947789108095679,
            "32": 0.07903861367789733,
            "33": -0.01959328820432001,
            "34": -0.022052111935302914,
            "35": -0.14284180486339065,
            "36": 0.10278064250751379,
            "37": -0.06115327310584975,
            "38": -0.03811380931194817,
            "39": -0.0033266348303486425,
            "40": 0.015884474658431843,
            "41": 0.10804922833914128,
            "42": 0.024194279775956413,
            "43": 0.005034891764909555,
            "44": 0.10946416949654598,
            "45": -0.15840383832909954,
            "46": 0.023245828456696555,
            "47": -0.10592229783224513,
            "48": -0.07859010059694312,
            "49": -0.10647783219879446,
            "50": 0.05488610033419225,
            "51": -0.04331020336864298,
            "52": -0.02297583649560118,
            "53": -0.18235306924540298,
            "54": -0.014675700391069961,
            "55": 0.01933517241222511,
            "56": -0.0771482048911245,
            "57": 0.06890839931388158,
            "58": -0.06628894128677368,
            "59": -0.1337817182908101,
            "60": 0.015455361639108874,
            "61": 0.001019886323813351,
            "62": 0.03658485743333085,
            "63": 0.1835989407836554,
            "64": 0.07257724927127365,
            "65": 0.18360766148547453,
            "66": -0.07234900038138871,
            "67": -0.048124172217831454,
            "68": 0.061090795730303064,
            "69": -0.07900171972304043,
            "70": 0.00175075117170086,
            "71": 0.07383824980668945,
            "72": 0.16474858180981247,
            "73": -0.11904488142056235,
            "74": 0.06213851156819719,
            "75": 0.0038609571174340485,
            "76": 0.020544191814826588,
            "77": -0.16910434325225449,
            "78": -0.0925010982045869,
            "79": -0.06796523949184313,
            "80": 0.17155420399016671,
            "81": 0.05333411855685711,
            "82": -0.0917131643917563,
            "83": 0.033893808046636886,
            "84": -0.15386766723408946,
            "85": 0.17433010492730588,
            "86": 0.03178283813956231,
            "87": -0.11063643890622758,
            "88": -0.15818607330874768,
            "89": 0.0013587456521856,
            "90": -0.08624251059378125,
            "91": -0.011168983476461976,
            "92": -0.17728663578050885,
            "93": 0.1552518806442881,
            "94": -0.11950441218145592,
            "95": -0.06519432940570154,
            "96": 0.05882739662537713,
            "97": 0.07121246565261911,
            "98": 0.1347027192536343,
            "99": 0.013398336150231416,
            "100": -0.13646287919908884,
            "101": -0.035674767150974306,
            "102": 0.20176300509713807,
            "103": -0.17937965139618062,
            "104": 0.1128706149339892,
            "105": -0.05378765633782401,
            "106": 0.07939920859964292,
            "107": -0.07099306777322105,
            "108": -0.12542602741648204,
            "109": 0.13614371824655055,
            "110": 0.016301804357487647,
            "111": 0.08358933272318088,
            "112": 0.15452495459623591,
            "113": -0.04339508971557184,
            "114": -0.007162712324817218,
            "115": -0.15725041216014662,
            "116": 0.1849035871076387,
            "117": 0.035916074811890186,
            "118": 0.021444156319711513,
            "119": 0.04790244160823409,
            "120": -0.05694644931618143,
            "121": -0.09154267006368878,
            "122": 0.1286217543626725,
            "123": 0.0835695407465476,
            "124": 0.17454645330288415,
            "125": -0.09665439763058384,
            "126": -0.11933284522481864,
            "127": 0.14273786619366585,
            "128": 0.15769568425060052,
            "129": -0.13653990454100634,
            "130": -0.11150265530037781,
            "131": 0.018440521942728192,
            "132": -0.03121343153966538,
            "133": 0.10960947942382405,
            "134": 0.20092363667237478,
            "135": 0.10198852516723454,
            "136": 0.1981431853173577,
            "137": 0.009583139527383086,
            "138": -0.15338157356622154,
            "139": 0.10415650971269877,
            "140": -0.07082810193009728,
            "141": -0.002973223226795632,
            "142": 0.19624261364507145,
            "143": 0.0850496582298678,
            "144": -0.16244321674209278,
            "145": -0.10065164733303267,
            "146": -0.13544586604802258,
            "147": -0.12095400910814483,
            "148": 0.18741074339505331,
            "149": 0.09480964865203134,
            "150": -0.15787072820825138,
            "151": 0.07453731615421359
          }
        },
        "3": {
          "bias": 0.0430148844943033,
          "weights": {
            "0": 0.1427090694064582,
            "1": -0.05177763714455373,
            "2": 0.18834465238918446,
            "3": 0.1859012277052715,
            "4": -0.08151410654507549,
            "5": -0.07623187054368287,
            "6": 0.05218964828782906,
            "7": -0.01487848625354556,
            "8": -0.03114226613248786,
            "9": -0.06641076798801542,
            "10": 0.05456852273700747,
            "11": 0.16189151116062456,
            "12": -0.012368486116773504,
            "13": -0.11998819428462239,
            "14": -0.10382983585140729,
            "15": 0.03165880800660897,
            "16": -0.021815933148388138,
            "17": 0.14406732227457478,
            "18": 0.07994935033483383,
            "19": 0.06387542368717249,
            "20": 0.07043958734967852,
            "21": 0.007221636310285416,
            "22": 0.13348657960244906,
            "23": 0.06512958971084178,
            "24": 0.07679320301103162,
            "25": -0.01089517972960967,
            "26": -0.08363785951149821,
            "27": 0.015630637647642213,
            "28": 0.10641514302511744,
            "29": -0.07668645213747219,
            "30": 0.04892382190046593,
            "31": 0.10825107732720192,
            "32": 0.10751525238311209,
            "33": -0.13230012746596786,
            "34": 0.19812343693144807,
            "35": 0.05080724959146246,
            "36": 0.1930048811801743,
            "37": -0.19366795172964973,
            "38": 0.11972964370763824,
            "39": -0.18653589859817685,
            "40": 0.04656615001961415,
            "41": 0.04790866959011689,
            "42": 0.11906264216166836,
            "43": -0.13173285639146598,
            "44": -0.14444435791238322,
            "45": 0.017801641727889922,
            "46": 0.08767494228371281,
            "47": -0.007869634035508713,
            "48": -0.036175306950100794,
            "49": -0.1801679712049629,
            "50": -0.0958712497681734,
            "51": -0.04005330005011334,
            "52": 0.11819361720107666,
            "53": 0.10435634552916329,
            "54": -0.003808808447522782,
            "55": 0.1363950377231066,
            "56": -0.01254438713159112,
            "57": 0.18357875841108587,
            "58": -0.10423420931042587,
            "59": -0.11440678680042451,
            "60": -0.0879640380283413,
            "61": 0.15375432240893144,
            "62": -0.11220237125611714,
            "63": -0.12836887014980236,
            "64": -0.1888995211742272,
            "65": 0.15796951260319053,
            "66": -0.042899901572078125,
            "67": -0.14338295143454913,
            "68": 0.1648120590043939,
            "69": 0.04701540710775377,
            "70": 0.19596427934185123,
            "71": -0.17185033986828258,
            "72": -0.16595984444558748,
            "73": -0.0822014326129299,
            "74": 0.08719012609946555,
            "75": 0.10495905470002308,
            "76": 0.13666353974778203,
            "77": 0.06187905525445308,
            "78": 0.028460774941989456,
            "79": 0.11790142740289872,
            "80": -0.12734486808072024,
            "81": -0.08951735928918164,
            "82": -0.023987293401202682,
            "83": 0.04241993997429103,
            "84": -0.08010972129547805,
            "85": -0.07733702979698692,
            "86": -0.0077159130508599365,
            "87": 0.1201535255760933,
            "88": -0.030294013982801418,
            "89": -0.16316226528262393,
            "90": 0.02095212184188092,
            "91": 0.17465368536866346,
            "92": 0.12479267461571794,
            "93": 0.01269291589720363,
            "94": -0.10189874009439263,
            "95": 0.132461838387604,
            "96": -0.12238429033951026,
            "97": 0.13442132305980464,
            "98": -0.09765704458421906,
            "99": 0.06864821680157208,
            "100": -0.18204246171122968,
            "101": -0.13404265175633095,
            "102": 0.2027082503045462,
            "103": 0.1445795209556727,
            "104": 0.06263294128528271,
            "105": -0.10957949257460334,
            "106": -0.0678793993676179,
            "107": 0.11496373949070131,
            "108": -0.11717387987169951,
            "109": -0.09353289142565235,
            "110": 0.18550331707455325,
            "111": 0.10693494681639715,
            "112": -0.05014845939805713,
            "113": 0.053373340446088297,
            "114": 0.1995999049170739,
            "115": -0.11131323793109843,
            "116": -0.010849185035029824,
            "117": 0.0032469430048983647,
            "118": -0.10955057059471267,
            "119": -0.01565448247130953,
            "120": -0.10516940459771727,
            "121": 0.08658740383855099,
            "122": 0.08476833813727758,
            "123": 0.14243321319431812,
            "124": -0.15603329897250312,
            "125": 0.1457048178782922,
            "126": -0.06637637557965317,
            "127": 0.08021303731793819,
            "128": 0.002008405567073964,
            "129": -0.11678173455973066,
            "130": 0.18477655911846042,
            "131": -0.05991241306191103,
            "132": 0.17288326252588732,
            "133": 0.08854772412714504,
            "134": -0.0026084075995450634,
            "135": 0.048186243765406506,
            "136": 0.14087991991067622,
            "137": -0.08441427038969947,
            "138": 0.19001129079051146,
            "139": 0.11143360443826651,
            "140": -0.006575739589766537,
            "141": 0.03266921101817409,
            "142": -0.1154630982361027,
            "143": -0.1634934636169601,
            "144": 0.0809934829386918,
            "145": 0.14238219113306338,
            "146": 0.18843656925495644,
            "147": 0.20213571722357582,
            "148": 0.16342471463156272,
            "149": 0.019556423900767554,
            "150": -0.03380940953398706,
            "151": -0.018092412807985684
          }
        },
        "4": {
          "bias": 0.13009922999099716,
          "weights": {
            "0": -0.047852619347737296,
            "1": -0.11753706936392916,
            "2": 0.0630823361897774,
            "3": 0.08677556946609959,
            "4": -0.19372737503262216,
            "5": 0.15700282225019033,
            "6": -0.1927813119527982,
            "7": 0.032367446974072914,
            "8": -0.012675396801207946,
            "9": -0.16860154958443013,
            "10": -0.15122798264089168,
            "11": 0.12347864149544008,
            "12": 0.11317541928827682,
            "13": -0.05630175378602508,
            "14": 0.18322339985946903,
            "15": 0.11660284907749259,
            "16": 0.021928512015014053,
            "17": 0.16600754452787217,
            "18": 0.14015589096519768,
            "19": -0.1375410498097882,
            "20": -0.03601368866674647,
            "21": 0.19411315698768267,
            "22": -0.02326165357554538,
            "23": 0.15345895097634255,
            "24": -0.10904037064308797,
            "25": 0.13291790355720356,
            "26": 0.06311697248866713,
            "27": 0.03727525172798001,
            "28": 0.12980306286504173,
            "29": -0.13860757542423102,
            "30": -0.047869987196133994,
            "31": -0.1294975117761804,
            "32": -0.08064734094956096,
            "33": 0.055143276731783215,
            "34": -0.10041095071663651,
            "35": 0.14445607574569508,
            "36": 0.14388979961430792,
            "37": 0.12492640794127899,
            "38": -0.05271623142792774,
            "39": 0.15549392769725956,
            "40": -0.11787629929728022,
            "41": 0.10647932666039281,
            "42": 0.13278820384595189,
            "43": 0.2019328731745303,
            "44": -0.12889317472974568,
            "45": 0.06476449936537788,
            "46": -0.05464645490661028,
            "47": -0.1339467661793573,
            "48": 0.05944346155172021,
            "49": 0.08653613324116871,
            "50": 0.19976346716498955,
            "51": 0.1171242086723998,
            "52": 0.07271727625748926,
            "53": 0.013485797269777465,
            "54": -0.058824985765444836,
            "55": 0.13592036691395068,
            "56": 0.09509255211358678,
            "57": 0.059286845650686676,
            "58": -0.06359367369562645,
            "59": 0.08786444928132175,
            "60": 0.07673453462211684,
            "61": 0.1345142832816247,
            "62": 0.1313625690672904,
            "63": 0.17675959854503095,
            "64": 0.202506584065323,
            "65": 0.19867997044651753,
            "66": -0.1610586080970131,
            "67": 0.16476595530898053,
            "68": -0.08341910569391567,
            "69": 0.07318328938597944,
            "70": -0.03588854392616965,
            "71": 0.005404714099995569,
            "72": -0.011229782034853612,
            "73": -0.11851535247667082,
            "74": 0.06996455693520083,
            "75": -0.06713991679561479,
            "76": 0.06964795434008753,
            "77": 0.0987519832116902,
            "78": -0.007782466508772992,
            "79": 0.0527096779726455,
            "80": -0.15877550792023684,
            "81": 0.20115882500011464,
            "82": 0.0020611997456998514,
            "83": -0.1406121238941436,
            "84": 0.18419059687912018,
            "85": 0.13685537367149617,
            "86": 0.19501751678199322,
            "87": -0.17214196417357067,
            "88": 0.10561550390793784,
            "89": -0.004025552899561682,
            "90": 0.18299109736826402,
            "91": 0.012824157230172911,
            "92": -0.1029100451331765,
            "93": -0.1298818308321351,
            "94": -0.1621277423422979,
            "95": 0.19472779458028144,
            "96": -0.09211422247458716,
            "97": -0.07913533128620331,
            "98": 0.04326416617345925,
            "99": 0.06425810537952474,
            "100": 0.14688660489002056,
            "101": 0.12586333037661057,
            "102": -0.01089678201187354,
            "103": 0.039178800423556655,
            "104": -0.1483516629155803,
            "105": -0.050369654299587584,
            "106": 0.01879491855385417,
            "107": -0.18817792820066187,
            "108": 0.09096248349269145,
            "109": -0.15428103217563205,
            "110": 0.2010328341225023,
            "111": -0.1874060681836926,
            "112": 0.19253315484965844,
            "113": -0.0627727765280353,
            "114": 0.18321889962872742,
            "115": -0.0672218434392161,
            "116": 0.03664354545717119,
            "117": -0.17263204738988758,
            "118": 0.10637449716463089,
            "119": -0.1448759414572537,
            "120": -0.1609210480113826,
            "121": 0.11859526463519686,
            "122": 0.19948602465084778,
            "123": -0.14875391410285574,
            "124": -0.10667043431532547,
            "125": -0.06577018521697084,
            "126": 0.12347084502254148,
            "127": 0.1511683185195231,
            "128": -0.1003231893690298,
            "129": 0.18813082139518492,
            "130": 0.06307486826004112,
            "131": 0.13890969607888362,
            "132": 0.18942038096577377,
            "133": -0.18451433739474835,
            "134": -0.13851290833211394,
            "135": -0.16638258551859228,
            "136": 0.06341854668301519,
            "137": -0.16778662968008115,
            "138": 0.14498639110361072,
            "139": 0.019099301214953388,
            "140": 0.20350828310831834,
            "141": 0.03274970683244805,
            "142": 0.18222918670928923,
            "143": 0.10511071685923529,
            "144": -0.18902407503920504,
            "145": 0.026013786548747322,
            "146": 0.12966345882667632,
            "147": 0.006295075462073662,
            "148": -0.03013420033817896,
            "149": -0.07287677051446316,
            "150": -0.10109834908653063,
            "151": -0.009721591293347171
          }
        },
        "5": {
          "bias": -0.07047378987832356,
          "weights": {
            "0": 0.15729513558781794,
            "1": -0.15321527806907984,
            "2": 0.03747495213870395,
            "3": 0.07609535782646101,
            "4": -0.16590200523817505,
            "5": 0.13274971612494965,
            "6": 0.1783994025305038,
            "7": -0.06524862924227354,
            "8": -0.08398867518683902,
            "9": -0.13426177729105185,
            "10": -0.17764844213220998,
            "11": -0.028058668821624024,
            "12": 0.01742610784551751,
            "13": 0.11308181568460615,
            "14": 0.10346457485029872,
            "15": -0.18963784930062416,
            "16": -0.15727674619780627,
            "17": -0.0070395812611817035,
            "18": -0.13549288805279233,
            "19": -0.021242649103391176,
            "20": -0.1816620702611157,
            "21": 0.046066446206992843,
            "22": -0.18076737584095348,
            "23": -0.16145067796281914,
            "24": -0.09514908777893992,
            "25": 0.04524043476234704,
            "26": -0.1826183720582021,
            "27": -0.12056057409380873,
            "28": 0.04583240423877819,
            "29": 0.012355174893804544,
            "30": -0.1421765005149294,
            "31": 0.19192100761945385,
            "32": -0.14977444658327485,
            "33": -0.2036338743295923,
            "34": -0.07214263262051122,
            "35": -0.03504685934115255,
            "36": -0.07902875791016703,
            "37": 0.12938981267730418,
            "38": -0.12669022782383918,
            "39": 0.09098413766517285,
            "40": 0.16115038994925543,
            "41": -0.13293790816264905,
            "42": -0.15625038303546782,
            "43": -0.03663495824666877,
            "44": -0.061054267903135194,
            "45": -0.09195042494296304,
            "46": -0.014422066012361422,
            "47": -0.05531808900969084,
            "48": -0.08772628004112094,
            "49": -0.06743371837311854,
            "50": -0.08831600290319976,
            "51": -0.17102535212542447,
            "52": 0.13088785300575864,
            "53": 0.1421100155412138,
            "54": 0.16438949934479447,
            "55": 0.03406035318461082,
            "56": -0.13747827892025452,
            "57": 0.06188827444452929,
            "58": 0.016537449122463462,
            "59": 0.09307552640021409,
            "60": 0.11567448586401025,
            "61": 0.00357565595703603,
            "62": -0.04091367374371075,
            "63": 0.10298037026609021,
            "64": -0.09790894428053444,
            "65": -0.06911965322273499,
            "66": 0.14230416745857546,
            "67": 0.042444048395607496,
            "68": -0.20142055622634925,
            "69": -0.1892836534298908,
            "70": 0.03807981905977104,
            "71": -0.08533794758908392,
            "72": 0.15686572836840063,
            "73": 0.06968695050601913,
            "74": 0.19429510926725774,
            "75": -0.19191813014920853,
            "76": 0.13550250452391271,
            "77": 0.1793117064348134,
            "78": 0.1824488682735923,
            "79": 0.032627713873699345,
            "80": 0.18093413995148308,
            "81": 0.03267008592266541,
            "82": -0.05416912679337279,
            "83": -0.04451106524206316,
            "84": -0.1965534829927074,
            "85": 0.0686803749851841,
            "86": -0.10468249263657525,
            "87": -0.02229307594703158,
            "88": 0.10498351128189905,
            "89": 0.1850239655532855,
            "90": -0.16915575668344568,
            "91": 0.029991369732853917,
            "92": -0.06573763398865115,
            "93": 0.01110713751108861,
            "94": 0.10407541868301633,
            "95": 0.19221145665373723,
            "96": -0.13635912366642938,
            "97": 0.03702599333540698,
            "98": 0.03175988200638735,
            "99": -0.1743123268444254,
            "100": 0.16808759807208037,
            "101": -0.10203606753197449,
            "102": 0.13747964939254645,
            "103": -0.0925405858134344,
            "104": 0.18791474004025419,
            "105": 0.137612193361186,
            "106": 0.10406010105212327,
            "107": -0.04360334076553316,
            "108": 0.02711803414923655,
            "109": 0.17604767388176412,
            "110": 0.05007595093457845,
            "111": 0.13651850802363544,
            "112": 0.018690246686015627,
            "113": 0.02133395477691429,
            "114": -0.020950279621029324,
            "115": -0.0685824324021239,
            "116": -0.049206345154427636,
            "117": 0.057202557503103414,
            "118": -0.004243428673257306,
            "119": -0.10637570052127744,
            "120": -0.12359047601195816,
            "121": -0.14062870637801433,
            "122": 0.11811334223108402,
            "123": 0.15347992728096674,
            "124": 0.10285483299235319,
            "125": -0.1563838052283723,
            "126": -0.14734685393113797,
            "127": -0.02733870943744036,
            "128": 0.09567277096782939,
            "129": -0.1592694922208859,
            "130": 0.058952705469090864,
            "131": 0.19291919644243902,
            "132": 0.043910882620392555,
            "133": -0.19121287486686428,
            "134": 0.011583815141074776,
            "135": -0.0006848760500301025,
            "136": 0.16597667775684918,
            "137": 0.11622280601544079,
            "138": -0.12092822221410639,
            "139": 0.03956789842843893,
            "140": -0.13523467130611908,
            "141": -0.03447850804685842,
            "142": 0.09293529062767955,
            "143": -0.11211961943111692,
            "144": 0.05984403991049935,
            "145": -0.1607004072688128,
            "146": 0.10942316008632201,
            "147": -0.11948842134378539,
            "148": 0.08979456164520458,
            "149": 0.14185235570937796,
            "150": -0.1297440808813489,
            "151": 0.15642363903087664
          }
        },
        "6": {
          "bias": 0.001695974629123434,
          "weights": {
            "0": -0.09355787439987101,
            "1": 0.0909940284634598,
            "2": -0.07118486925288785,
            "3": 0.00010795156982545076,
            "4": -0.18373280368508138,
            "5": -0.1494033506803518,
            "6": -0.14074628006766127,
            "7": -0.04143048318438848,
            "8": -0.11918794254908213,
            "9": -0.11556169464651328,
            "10": -0.06386978570664117,
            "11": -0.08447390398840156,
            "12": 0.0012662930054100575,
            "13": 0.15023982595026353,
            "14": 0.030712886270062544,
            "15": 0.16609212863320427,
            "16": 0.12575126252776453,
            "17": -0.19320098470354924,
            "18": -0.02868688498479844,
            "19": -0.06964447389720856,
            "20": -0.11214022156617295,
            "21": -0.13770246038623796,
            "22": 0.12146953961206287,
            "23": -0.1390948983836832,
            "24": -0.08721721963645371,
            "25": 0.07631257309551859,
            "26": -0.1403308363341192,
            "27": -0.1429523820457378,
            "28": -0.1876749352633306,
            "29": -0.005719849822875237,
            "30": 0.022690591418326217,
            "31": 0.1620742923259082,
            "32": -0.07602566593195868,
            "33": 0.13918501118297946,
            "34": -0.046154579987689424,
            "35": -0.08205094572561014,
            "36": -0.016521642433855864,
            "37": 0.06769608588788753,
            "38": -0.19346888147782834,
            "39": -0.047790196757294415,
            "40": 0.09704708302645011,
            "41": 0.02410436058838818,
            "42": 0.13260682339227176,
            "43": 0.07825158859170547,
            "44": -0.10896368395550972,
            "45": -0.06731243123297306,
            "46": 0.11465956189385774,
            "47": -0.025775376140969957,
            "48": 0.036968854099886414,
            "49": -0.13778972679891754,
            "50": 0.048132724848781124,
            "51": -0.11721245956335638,
            "52": -0.07516755555995766,
            "53": -0.02613999804973445,
            "54": -0.05336418524987575,
            "55": -0.07270942856903559,
            "56": 0.10458710475573876,
            "57": -0.0006186390086449568,
            "58": -0.0018333476920659763,
            "59": 0.19110866654826314,
            "60": 0.009242007101457124,
            "61": -0.14302911592186618,
            "62": 0.054382536725056115,
            "63": 0.04807692232865758,
            "64": 0.08419089700626096,
            "65": 0.14467888795973807,
            "66": 0.05823268534955701,
            "67": 0.14733817504661353,
            "68": -0.13137614168282444,
            "69": 0.15720477427086668,
            "70": 0.17540911701667283,
            "71": -0.0077695385205832955,
            "72": 0.025145178465724383,
            "73": 0.15120068109779192,
            "74": -0.1565207585102545,
            "75": 0.1420658713016865,
            "76": 0.17076668533626171,
            "77": 0.02572040207262322,
            "78": -0.06033053197155193,
            "79": 0.10098423469101456,
            "80": 0.02330429439786955,
            "81": -0.182000857593385,
            "82": -0.024541665871823028,
            "83": 0.20878435549994287,
            "84": -0.06013620848231537,
            "85": 0.002632306884734605,
            "86": -0.1191055594543271,
            "87": 0.19500069920660365,
            "88": -0.072882423986687,
            "89": 0.19569022448453186,
            "90": 0.17654174131802644,
            "91": -0.037036327585741484,
            "92": -0.05098039957502583,
            "93": 0.10379152899376905,
            "94": -0.12549046763728197,
            "95": 0.19269921406486573,
            "96": -0.04030667997196976,
            "97": -0.19137804588500845,
            "98": 0.13798326825321736,
            "99": 0.031903297079631,
            "100": 0.061838331219191425,
            "101": -0.14729985902626944,
            "102": -0.05482102451721248,
            "103": 0.09297267544791583,
            "104": 0.19331340808632752,
            "105": 0.1507216715857775,
            "106": 0.020625619896667047,
            "107": 0.17405926662467539,
            "108": -0.12807669777518238,
            "109": -0.10870678428220724,
            "110": 0.006695495578535086,
            "111": -0.1235776968170334,
            "112": -0.12610717509848793,
            "113": 0.07608516516064946,
            "114": -0.17219896366355827,
            "115": -0.018530349396626452,
            "116": -0.03717130552256303,
            "117": 0.03275705488708351,
            "118": -0.17802973059913121,
            "119": -0.16928374016891815,
            "120": 0.11288959267483305,
            "121": -0.11252688368456683,
            "122": 0.12145638911608084,
            "123": -0.0738504684177436,
            "124": 0.06933322387653248,
            "125": -0.08171893452679696,
            "126": -0.020935182231764136,
            "127": 0.09143596867351594,
            "128": -0.06799507607121538,
            "129": -0.12151186206825952,
            "130": -0.044557580387345815,
            "131": 0.09719621498233494,
            "132": -0.041534349646528065,
            "133": -0.11080704992217293,
            "134": 0.18502321048117992,
            "135": -0.07692392420157151,
            "136": 0.18459441740046267,
            "137": -0.07162252975364032,
            "138": 0.19187194739379612,
            "139": -0.13714166165984568,
            "140": 0.15400818428375934,
            "141": -0.12230158316435606,
            "142": 0.07211082381105102,
            "143": 0.14333995080810058,
            "144": -0.18646140153663648,
            "145": 0.10335606323924741,
            "146": -0.1177811433274309,
            "147": -0.04749168934323863,
            "148": 0.07792604757327937,
            "149": -0.0887412976658799,
            "150": -0.16453832232397433,
            "151": -0.07494218967086388
          }
        },
        "7": {
          "bias": -0.20684741048516528,
          "weights": {
            "0": -0.202291608818569,
            "1": 0.010260897001289628,
            "2": -0.08859017169603703,
            "3": 0.16118936923156021,
            "4": -0.17123967482081,
            "5": -0.15409437563173747,
            "6": 0.11084735725227475,
            "7": 0.08678832949741284,
            "8": -0.13963948234624454,
            "9": -0.11397760799711251,
            "10": 0.13834015892743654,
            "11": 0.12208045750368224,
            "12": -0.10465580761064515,
            "13": -0.15412808974644768,
            "14": 0.06662260152269778,
            "15": -0.17027006956739021,
            "16": 0.026856800070037032,
            "17": -0.14654079268609305,
            "18": -0.07988131598421554,
            "19": 0.17044838514298646,
            "20": -0.2028958908083379,
            "21": -0.08559726795553195,
            "22": 0.08276598365299341,
            "23": -0.10125799568028726,
            "24": 0.157185607138265,
            "25": -0.09180915195976208,
            "26": -0.053453188269226876,
            "27": -0.12644939952263615,
            "28": 0.1270577848561795,
            "29": 0.04198036834141659,
            "30": -0.16661580644755827,
            "31": -0.036864088887820765,
            "32": -0.066173036452845,
            "33": 0.08844574109838872,
            "34": 0.06410817684737644,
            "35": 0.011258033072283407,
            "36": 0.1839083864042127,
            "37": 0.12323089048059375,
            "38": 0.06866290693624351,
            "39": -0.15785634108403135,
            "40": 0.12191357372576204,
            "41": -0.16334467854729895,
            "42": -0.13089647214686853,
            "43": 0.05235849376441622,
            "44": 0.0035855166952960356,
            "45": -0.19540048935120402,
            "46": 0.08332321684507166,
            "47": -0.04701990914487758,
            "48": -0.0006899847521826627,
            "49": -0.15957597309541802,
            "50": -0.13588910422331407,
            "51": -0.19247385205107365,
            "52": -0.05069073318217258,
            "53": -0.0825941648458359,
            "54": -0.19142030456889245,
            "55": -0.06533710560586108,
            "56": -0.22426886831531434,
            "57": -0.024685176484534003,
            "58": -0.019489793351997596,
            "59": 0.17240715146444527,
            "60": -0.10386967280782755,
            "61": -0.11948488040121424,
            "62": 0.0660873480035625,
            "63": 0.09204513425050552,
            "64": -0.14092998299620496,
            "65": -0.11427536325582435,
            "66": -0.08199565630918831,
            "67": 0.0687727128338283,
            "68": 0.10401492092994508,
            "69": 0.04946180382928146,
            "70": 0.056018341188494185,
            "71": 0.1529581787465207,
            "72": 0.15417135396095302,
            "73": 0.1590327520006646,
            "74": 0.06807011903520215,
            "75": 0.08239763274756638,
            "76": 0.18879605120039028,
            "77": -0.19042028695234609,
            "78": -0.11766535484394215,
            "79": -0.1093084853779301,
            "80": 0.1815508467496995,
            "81": -0.11593444186576128,
            "82": -0.049337112106568125,
            "83": -0.01698829766913567,
            "84": 0.06950255880887314,
            "85": -0.10728206674454051,
            "86": 0.07083828836471309,
            "87": 0.04466099280807907,
            "88": 0.11734823929273736,
            "89": 0.03251432542675983,
            "90": 0.012999338339159708,
            "91": -0.11644460219454685,
            "92": 0.08613743200131342,
            "93": -0.1577754402286468,
            "94": 0.03966977188929091,
            "95": -0.122302090776625,
            "96": -0.05295198059990939,
            "97": 0.16037601539834406,
            "98": -0.10544943665115676,
            "99": 0.1677956644051493,
            "100": -0.21067404494013692,
            "101": -0.12968691323192638,
            "102": -0.1851360493314338,
            "103": -0.011860188042374976,
            "104": 0.12929364616200698,
            "105": -0.1476930211177359,
            "106": -0.010882941569136538,
            "107": -0.035461462766766996,
            "108": 0.07683025887995307,
            "109": 0.07264449169208552,
            "110": -0.11283647276655283,
            "111": -0.03172536276119543,
            "112": 0.03980361545617026,
            "113": 0.05610406935551783,
            "114": -0.16469115289862032,
            "115": -0.1948842732533953,
            "116": 0.04820170650369855,
            "117": -0.11157591711149295,
            "118": 0.08139421122295046,
            "119": -0.11715972525430654,
            "120": -0.08747743706517429,
            "121": 0.11011828651709873,
            "122": 0.1862511488671265,
            "123": 0.052277125433513066,
            "124": 0.1239562272070385,
            "125": 0.12380114358056926,
            "126": 0.15591144165981122,
            "127": 0.04329944457186613,
            "128": 0.05819122613587648,
            "129": -0.18362194069115248,
            "130": -0.04138866525577528,
            "131": -0.1627946033576013,
            "132": -0.0014906572565327667,
            "133": 0.014468171458565608,
            "134": -0.19108923626133065,
            "135": -0.02999496556667805,
            "136": 0.13260887272157842,
            "137": -0.005656288174607265,
            "138": 0.01171941031172725,
            "139": 0.018823030296462952,
            "140": 0.11149226850182369,
            "141": -0.09556981630004562,
            "142": 0.15607975857599996,
            "143": -0.09528351167848721,
            "144": -0.023022705379814247,
            "145": -0.1742928612891072,
            "146": -0.17573965198823807,
            "147": -0.06215113301444334,
            "148": 0.1214770892233783,
            "149": 0.08711289360125064,
            "150": -0.1929189604408177,
            "151": -0.11329492601075876
          }
        },
        "8": {
          "bias": 0.15944793562492857,
          "weights": {
            "0": -0.03277025778639772,
            "1": -0.11607562960758279,
            "2": 0.16027598809272636,
            "3": -0.11226815825284625,
            "4": -0.09564965573496736,
            "5": -0.15783271215594702,
            "6": -0.028756402815862545,
            "7": 0.03446020371489078,
            "8": 0.13915436272466145,
            "9": -0.17084061628592334,
            "10": 0.0876812745005489,
            "11": -0.11714453302083953,
            "12": 0.1758296958790006,
            "13": -0.07413906430856175,
            "14": -0.03666836039667651,
            "15": 0.02924312698602041,
            "16": -0.012612731081228646,
            "17": 0.0731613256579762,
            "18": -0.08810620757088315,
            "19": -0.05323886568411229,
            "20": -0.1820168916761214,
            "21": 0.05308959271688495,
            "22": -0.1755040549756416,
            "23": -0.06726993864990494,
            "24": -0.05212912507834966,
            "25": 0.18015734011932666,
            "26": 0.13944774114369837,
            "27": 0.20176939981051287,
            "28": 0.1594238451031981,
            "29": 0.1677654110177362,
            "30": -0.15003731305735177,
            "31": -0.17427449151276586,
            "32": 0.11715490083543416,
            "33": 0.1781659748749405,
            "34": -0.043268353744317076,
            "35": -0.10137003107726922,
            "36": -0.10276151360004028,
            "37": 0.13535031621991464,
            "38": 0.053371792141460914,
            "39": 0.15154496261671627,
            "40": -0.08651684112104287,
            "41": -0.1268389713556446,
            "42": -0.07408084955619582,
            "43": 0.190878455174793,
            "44": -0.15083387777399507,
            "45": -0.11750032286531327,
            "46": 0.006677321217173681,
            "47": -0.18676749335752607,
            "48": 0.18808941306564783,
            "49": -0.07814380597550752,
            "50": -0.015061891832944718,
            "51": 0.11770553402847898,
            "52": 0.13451467824517094,
            "53": 0.17374510669235912,
            "54": 0.04583133618041649,
            "55": -0.19502460715178987,
            "56": -0.11619980871318457,
            "57": -0.06622032890560123,
            "58": -0.025118321917686533,
            "59": 0.11274684394133587,
            "60": 0.12002630279133858,
            "61": 0.129463653037225,
            "62": -0.014369783419711662,
            "63": -0.0805983777544332,
            "64": 0.15896540800861947,
            "65": 0.07929325537014138,
            "66": 0.08691215171122278,
            "67": 0.12426070905132962,
            "68": 0.15828941674095304,
            "69": -0.18036926842970197,
            "70": -0.16534370703119433,
            "71": 0.1994025980919805,
            "72": -0.177982527286081,
            "73": -0.0962872564400809,
            "74": 0.1038972247504886,
            "75": 0.19209023120124855,
            "76": 0.1707019744187773,
            "77": 0.07812183218110015,
            "78": 0.07703210064421198,
            "79": -0.13980332519817598,
            "80": 0.12760924475687338,
            "81": -0.17541280584122063,
            "82": -0.1261929832024382,
            "83": 0.040305628466667756,
            "84": -0.09875241137876031,
            "85": 0.15288453757918208,
            "86": 0.10269518290632144,
            "87": 0.09677163669432742,
            "88": 0.13157391778134453,
            "89": 0.05492581899115991,
            "90": -0.17996164577646515,
            "91": -0.06856292477409358,
            "92": -0.15758868147144633,
            "93": -0.015477625880117443,
            "94": -0.1454507297589871,
            "95": -0.001122452663536876,
            "96": -0.003046525305086944,
            "97": 0.16130038085844806,
            "98": 0.1830385851885086,
            "99": 0.021644890624532915,
            "100": -0.10201045502221281,
            "101": 0.04937492797578022,
            "102": 0.05089822588516488,
            "103": 0.04618987928537588,
            "104": 0.12381509466184183,
            "105": 0.1948564566338284,
            "106": 0.19771141399829184,
            "107": -0.022287745489210493,
            "108": -0.12763921062050726,
            "109": -0.1570273328033185,
            "110": -0.1556962528546715,
            "111": -0.15969633392126034,
            "112": -0.005800800713210751,
            "113": 0.029114378334391188,
            "114": -0.15385325613652823,
            "115": -0.1708527437286997,
            "116": 0.02034880919550142,
            "117": -0.009939424004246293,
            "118": -0.16525457847653516,
            "119": -0.004788257872359841,
            "120": -0.02763663639408488,
            "121": -0.11922616765852678,
            "122": -0.09901138568634009,
            "123": -0.17585721544784813,
            "124": 0.04010909039034747,
            "125": 0.018190906811665127,
            "126": -0.18134971901305957,
            "127": 0.08126661330490757,
            "128": 0.1767233731892724,
            "129": -0.12436641321669156,
            "130": 0.01679185803881778,
            "131": -0.19533192636473365,
            "132": 0.14896038081471208,
            "133": -0.11829497649276453,
            "134": -0.11013919980610831,
            "135": -0.003822168885720979,
            "136": 0.053633860968983094,
            "137": 0.09169327395390202,
            "138": -0.04422640956204177,
            "139": -0.16387052335804167,
            "140": 0.17580181272748557,
            "141": 0.07654273578203631,
            "142": -0.11205308792366668,
            "143": -0.17342099016772505,
            "144": -0.12084390976234267,
            "145": -0.010471818137525677,
            "146": -0.13512236157423832,
            "147": 0.18920255612936468,
            "148": 0.20056976091197232,
            "149": -0.03406955938553119,
            "150": -0.14891843570601423,
            "151": -0.17433562361818708
          }
        },
        "9": {
          "bias": -0.0023495916579549334,
          "weights": {
            "0": -0.03959342978062167,
            "1": 0.12756142819985913,
            "2": -0.1343759154024869,
            "3": -0.10343777310315204,
            "4": -0.008025924258319045,
            "5": -0.054463171004238954,
            "6": 0.013237623913589425,
            "7": -0.0036938173497460427,
            "8": 0.05808654955617489,
            "9": 0.05161321884449565,
            "10": 0.00582806331488676,
            "11": -0.027637237192911116,
            "12": 0.060518840665943645,
            "13": 0.029524094650436594,
            "14": -0.1446303849798218,
            "15": 0.10675544104018368,
            "16": 0.0939301794539584,
            "17": -0.16069974929865302,
            "18": 0.011367563399802418,
            "19": -0.07677267656894772,
            "20": 0.1817100556856153,
            "21": 0.16814008376010928,
            "22": 0.17879024819769124,
            "23": -0.17720146528544875,
            "24": 0.11142649372299956,
            "25": -0.06408304450488528,
            "26": 0.07334518713092626,
            "27": -0.08866577688419007,
            "28": 0.19070661572718672,
            "29": 0.201311362307419,
            "30": -0.03364349614213322,
            "31": -0.010057417656610623,
            "32": 0.17965307536399835,
            "33": -0.07951526268870213,
            "34": 0.158885893274614,
            "35": 0.10037047311137157,
            "36": 0.19109423592948815,
            "37": 0.03331920004748444,
            "38": 0.18704163899265203,
            "39": 0.20211683118418608,
            "40": -0.17586067630164443,
            "41": 0.17395912546510517,
            "42": -0.04244114571961957,
            "43": 0.04801925241491175,
            "44": -0.1054192254655932,
            "45": -0.11447541627211917,
            "46": -0.07307097890419866,
            "47": 0.09277103974080719,
            "48": 0.11855072013698953,
            "49": -0.038646447542891364,
            "50": 0.07010449060932367,
            "51": -0.14337949800245584,
            "52": 0.1256557691093141,
            "53": 0.0764027042257796,
            "54": -0.1237063366427057,
            "55": -0.12494347259573402,
            "56": 0.19622932545281385,
            "57": 0.012558974882218906,
            "58": 0.15813786216131473,
            "59": -0.10912804019262486,
            "60": 0.07871009889388644,
            "61": 0.09358000458063384,
            "62": 0.17950425955523558,
            "63": 0.145813106419179,
            "64": -0.09593480987321787,
            "65": 0.19583863474684796,
            "66": -0.09435415738186355,
            "67": 0.20433237890885023,
            "68": 0.12472722709306416,
            "69": -0.08945907111901803,
            "70": 0.017362642690439592,
            "71": -0.0827082856881703,
            "72": 0.1525652034310721,
            "73": -0.02420091955300744,
            "74": 0.04026028986533905,
            "75": 0.16560543120410992,
            "76": -0.08168358502948417,
            "77": -0.1636578545661225,
            "78": -0.10790526113847891,
            "79": 0.1240325356632863,
            "80": 0.05973149610415113,
            "81": 0.07741922699127182,
            "82": -0.038432371283717265,
            "83": 0.08810234497041647,
            "84": 0.08936658698959862,
            "85": -0.04003398812898749,
            "86": 0.08061940192082653,
            "87": 0.06707723945278506,
            "88": 0.06209026792184721,
            "89": 0.08102005797412375,
            "90": -0.07976755573638594,
            "91": 0.16441042965463762,
            "92": -0.04140349219971115,
            "93": 0.017467214699400366,
            "94": 0.09124053294452883,
            "95": 0.02505281998126483,
            "96": 0.1372317493954756,
            "97": -0.17496583653403072,
            "98": -0.16253259462394054,
            "99": -0.09412203888787728,
            "100": 0.09287149227280912,
            "101": 0.1878603642220525,
            "102": 0.1033937573335229,
            "103": -0.0685929224735396,
            "104": -0.1352142763195398,
            "105": 0.05231847286694809,
            "106": 0.1536106450073547,
            "107": 0.06090655078573092,
            "108": -0.12909553826324208,
            "109": 0.10470200431632963,
            "110": -0.06000108705052353,
            "111": -0.15858387479695202,
            "112": -0.0036550505385023954,
            "113": -0.12646105951274628,
            "114": -0.04333243625411521,
            "115": 0.13988019050454986,
            "116": -0.11917225374916086,
            "117": 0.0748892335844827,
            "118": 0.1899865636809633,
            "119": -0.1581014683900899,
            "120": -0.11950678790745241,
            "121": -0.1834622535404463,
            "122": 0.20545547747768902,
            "123": 0.08590861185860077,
            "124": 0.20054744779516767,
            "125": 0.10419715464113559,
            "126": 0.033221053753257734,
            "127": -0.12105691825337611,
            "128": 0.15621222039482657,
            "129": 0.04619059959609464,
            "130": -0.1226103790635509,
            "131": -0.1326326707571749,
            "132": 0.016095550113525935,
            "133": 0.20201104716206206,
            "134": -0.009842655132872387,
            "135": -0.012054781076214384,
            "136": 0.21159892430324137,
            "137": 0.1935574136247148,
            "138": 0.18107056706577418,
            "139": 0.037931767136407675,
            "140": -0.09081092947019846,
            "141": -0.05119148483834501,
            "142": -0.019545258034663355,
            "143": 0.053084047879985385,
            "144": -0.029519370965333958,
            "145": -0.12105238055682281,
            "146": -0.028317964458798056,
            "147": 0.19900979125869067,
            "148": 0.06351207417077281,
            "149": -0.11113650383573602,
            "150": 0.14228606574084007,
            "151": -0.04429115583225884
          }
        },
        "10": {
          "bias": -0.12998612905800813,
          "weights": {
            "0": -0.023454921640617406,
            "1": -0.0034863451932771205,
            "2": -0.022609057936101337,
            "3": 0.15676156197387012,
            "4": 0.00200334835643654,
            "5": 0.04569693411691322,
            "6": 0.08125336372719345,
            "7": 0.008510063277081875,
            "8": -0.13077128342406666,
            "9": -0.046854388314745074,
            "10": -0.07186522122229183,
            "11": 0.1123902196745079,
            "12": -0.1709917171863465,
            "13": -0.1592514770581804,
            "14": 0.1414031313062299,
            "15": 0.13915859201998992,
            "16": -0.07047663627748252,
            "17": 0.13088262772217374,
            "18": 0.17790477674829963,
            "19": -0.03476720590406292,
            "20": -0.196624525865251,
            "21": 0.15553695755189206,
            "22": -0.07750314579509616,
            "23": -0.1548796114445397,
            "24": -0.14615884396890966,
            "25": 0.05413888690219439,
            "26": -0.04644586669651451,
            "27": 0.19144565841222647,
            "28": -0.019033601551885517,
            "29": 0.031740448104863435,
            "30": -0.12203688061681221,
            "31": -0.10319952220623715,
            "32": 0.19162112598854877,
            "33": -0.19706651080733964,
            "34": 0.06090675774550153,
            "35": 0.05870587498455481,
            "36": -0.05469343250624699,
            "37": -0.11245560968246393,
            "38": -0.028805935028264618,
            "39": -0.041545975838393236,
            "40": 0.13541774313886382,
            "41": -0.17991699214230072,
            "42": -0.12451804022189995,
            "43": 0.1642827103459827,
            "44": -0.12079511517412114,
            "45": -0.1549682167475615,
            "46": 0.04198459867568351,
            "47": 0.12888421484009854,
            "48": 0.023569697497709104,
            "49": 0.018729549610905928,
            "50": -0.07178607340275597,
            "51": -0.15789373434853812,
            "52": 0.0010422760042202448,
            "53": 0.09043270367294125,
            "54": 0.1896027621815332,
            "55": -0.03948865543760401,
            "56": -0.19499965115712484,
            "57": 0.1537016524933051,
            "58": 0.10210708873635309,
            "59": -0.09130129946863355,
            "60": -0.013405016082961319,
            "61": -0.16597544957330132,
            "62": 0.08055193581647795,
            "63": 0.036321117005516865,
            "64": -0.20028466177769694,
            "65": -0.022244698354847145,
            "66": 0.11340978946353852,
            "67": -0.11915976921829659,
            "68": 0.02961315790218667,
            "69": -0.05908041980362802,
            "70": 0.046942985057776825,
            "71": 0.022148393974005805,
            "72": 0.1551182046988126,
            "73": -0.03573657462176693,
            "74": 0.03358996438348312,
            "75": 0.05261903917769013,
            "76": 0.17875533090789045,
            "77": -0.17410665181625729,
            "78": -0.1287231423460942,
            "79": -0.1710016890940819,
            "80": 0.15758679659253189,
            "81": -0.19959476982059363,
            "82": 0.1598914731850301,
            "83": 0.021138352928400946,
            "84": 0.11270297977524078,
            "85": -0.05098249751692224,
            "86": 0.002259509231127926,
            "87": 0.13048231095780344,
            "88": 0.08330042743765079,
            "89": -0.033053628449993516,
            "90": -0.02530500911743487,
            "91": 0.04308372942402631,
            "92": 0.17651771654828682,
            "93": -0.09461553703251425,
            "94": -0.1324295932752767,
            "95": 0.06992580131934588,
            "96": -0.16732284582826668,
            "97": 0.019254509279356406,
            "98": 0.0018880314146071835,
            "99": 0.10432745154768089,
            "100": 0.17916148937749546,
            "101": -0.1548334776117073,
            "102": 0.11986644464905688,
            "103": 0.0730063129026144,
            "104": 0.12854287155998936,
            "105": -0.17590392830563142,
            "106": -0.17266070903751227,
            "107": 0.002890154669908059,
            "108": -0.1227260892527667,
            "109": -0.054686125102649454,
            "110": 0.0003814625048416349,
            "111": -0.16306653755644943,
            "112": -0.14668089366443637,
            "113": -0.16117124831121735,
            "114": 0.16921263985881427,
            "115": 0.056095448852756156,
            "116": -0.17356994675435464,
            "117": 0.11201004435333745,
            "118": -0.164618887082104,
            "119": 0.14838067158152865,
            "120": 0.18754521976188224,
            "121": -0.11461489771617936,
            "122": -0.13295098267163122,
            "123": -0.017889450319022112,
            "124": 0.10394432074536428,
            "125": -0.012160162661814727,
            "126": 0.12293942417329845,
            "127": 0.11704125527057384,
            "128": 0.05808612772866128,
            "129": -0.027546183237814183,
            "130": 0.05790873315464807,
            "131": 0.02697771735912425,
            "132": -0.19303809085368623,
            "133": 0.1278244167966393,
            "134": -0.051445798901933376,
            "135": -0.03206129064752867,
            "136": 0.08658196057543299,
            "137": -0.10571282803719122,
            "138": -0.09362305341809618,
            "139": -0.1738847680952654,
            "140": -0.10393004815739908,
            "141": -0.037170326660276976,
            "142": 0.010978528725988724,
            "143": -0.11584582368392038,
            "144": 0.03380209759200954,
            "145": 0.17927477321350013,
            "146": -0.01715792918374995,
            "147": -0.0665663679217914,
            "148": 0.037409738899418225,
            "149": -0.14035731935428405,
            "150": 0.06349591963320544,
            "151": -0.09540845469838614
          }
        },
        "11": {
          "bias": -0.17075118125257077,
          "weights": {
            "0": 0.08334658674379754,
            "1": -0.1845253383997546,
            "2": -0.1376402210117731,
            "3": -0.1672179114558517,
            "4": 0.046653075341086925,
            "5": -0.0400995274970071,
            "6": -0.04632145861091612,
            "7": 0.05459300626627464,
            "8": 0.1700463655340477,
            "9": 0.12460506424093094,
            "10": 0.030469314788813946,
            "11": -0.14268359619765458,
            "12": -0.05796302562213963,
            "13": -0.036726491424507686,
            "14": -0.11103757703881592,
            "15": 0.013560102155636158,
            "16": -0.1087988983548433,
            "17": 0.0259028367830217,
            "18": 0.05667190490783863,
            "19": -0.07055981020743153,
            "20": 0.20104835360832987,
            "21": 0.03197254124872673,
            "22": -0.13773910274777054,
            "23": 0.007527088478868561,
            "24": 0.09435639693022628,
            "25": -0.1695856275296533,
            "26": -0.19158587667332652,
            "27": -0.018310019950187214,
            "28": 0.1667080114993878,
            "29": -0.010715085422664833,
            "30": -0.1181492253312132,
            "31": -0.10915421777825776,
            "32": -0.16583720555323028,
            "33": 0.09328742254494331,
            "34": -0.05777921171372715,
            "35": 0.17861221245278927,
            "36": 0.14957022832508518,
            "37": -0.059030732337856655,
            "38": 0.06132003212319593,
            "39": 0.06583716872860745,
            "40": -0.007437556371424305,
            "41": -0.18875314183960326,
            "42": 0.12016196997843821,
            "43": 0.04193619761737502,
            "44": 0.17146579599624404,
            "45": 0.059618415586355146,
            "46": 0.20724460549242996,
            "47": 0.19242905981415476,
            "48": -0.07010047420380305,
            "49": 0.07715934465291269,
            "50": 0.10956905606315312,
            "51": 0.17106323713868124,
            "52": 0.14451416409540285,
            "53": -0.08534561115342972,
            "54": 0.151153797125945,
            "55": -0.11352178913176932,
            "56": -0.18492681715366982,
            "57": -0.1625979012439811,
            "58": -0.03890451962808351,
            "59": 0.16172891482144186,
            "60": -0.011838736114450965,
            "61": 0.18691398392849873,
            "62": -0.13838516117280394,
            "63": 0.19667668885285097,
            "64": -0.010013515122853107,
            "65": 0.07771152927614686,
            "66": -0.06036870573929618,
            "67": -0.1496745026154621,
            "68": -0.06716095774442643,
            "69": -0.1574492513568654,
            "70": -0.05408061555578479,
            "71": 0.004794119043850946,
            "72": -0.05750524743037462,
            "73": -0.05258674171510982,
            "74": 0.1407200234297444,
            "75": -0.12311589201122138,
            "76": 0.17721839685554897,
            "77": -0.03472588411984501,
            "78": 0.10140841222150208,
            "79": 0.19845842506185019,
            "80": -0.014756778062046987,
            "81": 0.05939266870074286,
            "82": 0.03795432961898219,
            "83": 0.17721223350991336,
            "84": 0.013346507535009489,
            "85": -0.11954954040279428,
            "86": -0.14286374989695647,
            "87": -0.1211551680285942,
            "88": -0.03921850208146056,
            "89": -0.06795007786960006,
            "90": 0.049646435202594236,
            "91": -0.11579852225746243,
            "92": 0.19421336140357784,
            "93": 0.15963792618019312,
            "94": -0.028710645484771428,
            "95": -0.1259839872177634,
            "96": 0.11400170523844279,
            "97": -0.11644417161213416,
            "98": -0.1501386846239018,
            "99": 0.20038886322455007,
            "100": 0.12674575718225875,
            "101": 0.04861926033737859,
            "102": 0.02419864875256181,
            "103": 0.0883843304679974,
            "104": 0.007152412897505571,
            "105": -0.1677494518244535,
            "106": -0.017887273021002292,
            "107": 0.0521067208833948,
            "108": -0.02596399672528011,
            "109": -0.1429778238357966,
            "110": 0.17588814502819958,
            "111": -0.17146481684414355,
            "112": 0.07380287336692991,
            "113": -0.08140971954228664,
            "114": -0.12040080758839777,
            "115": -0.006008060566113204,
            "116": -0.04386817133174141,
            "117": -0.09439499080489412,
            "118": -0.053475794683265805,
            "119": -0.1459843944510008,
            "120": -0.12117923590782785,
            "121": 0.11132704137478773,
            "122": -0.14092076215066485,
            "123": 0.10793059266780072,
            "124": 0.1782467669741885,
            "125": -0.12338605353411611,
            "126": 0.1621688339027682,
            "127": 0.15373424487622378,
            "128": -0.09388016271282439,
            "129": 0.08639790559898021,
            "130": -0.14965372777933414,
            "131": -0.108664154192736,
            "132": 0.19496561457801342,
            "133": 0.17540595883973306,
            "134": -0.16743179066653782,
            "135": 0.10896438266984157,
            "136": -0.0143495212464093,
            "137": 0.010113559870604147,
            "138": 0.09260299278010688,
            "139": -0.1728638938757316,
            "140": 0.11879268793397095,
            "141": -0.07966412051867616,
            "142": -0.08395285336358667,
            "143": 0.03163999947424666,
            "144": -0.10623573316162706,
            "145": 0.11023511371405276,
            "146": 0.1433963701197061,
            "147": 0.01112101367511766,
            "148": 0.0719140990293437,
            "149": 0.09515286853244519,
            "150": -0.046817188450573755,
            "151": -0.18888954069769365
          }
        },
        "12": {
          "bias": -0.1366381153173646,
          "weights": {
            "0": 0.14428590994368962,
            "1": 0.1183698381650864,
            "2": -0.08315528643608336,
            "3": -0.03909818902051583,
            "4": -0.019649760282378557,
            "5": -0.08520796852994295,
            "6": 0.12871996700951438,
            "7": 0.06011596116152837,
            "8": 0.09552709680476365,
            "9": -0.07514563418413618,
            "10": 0.06705917438595185,
            "11": -0.1665255472484951,
            "12": 0.14564447041031878,
            "13": -0.05750526720709835,
            "14": 0.07106537981625603,
            "15": -0.12306986112809742,
            "16": 0.1566328230845836,
            "17": 0.0502828233592223,
            "18": -0.18968815305627143,
            "19": 0.13435175154001747,
            "20": 0.03173245915351937,
            "21": 0.10990764925734613,
            "22": 0.10021983717040324,
            "23": 0.13620436401836994,
            "24": 0.02310543905686775,
            "25": -0.1427669854225359,
            "26": 0.1456346122112839,
            "27": 0.06531862579144783,
            "28": 0.0491747731794039,
            "29": -0.022615780612362205,
            "30": 0.030025595928092515,
            "31": 0.05947506203115629,
            "32": -0.03654657171750539,
            "33": 0.02961422535493438,
            "34": 0.17136313823001526,
            "35": -0.01373210943833226,
            "36": -0.1923523606626447,
            "37": -0.19729465095161078,
            "38": -0.021334810191961966,
            "39": 0.13608950831024497,
            "40": -0.05199174020555347,
            "41": -0.08779087846547727,
            "42": -0.05302158997947707,
            "43": -0.09907773831179412,
            "44": 0.1737786445347223,
            "45": -0.15496501488610986,
            "46": -0.07491453523030403,
            "47": -0.19495635540440262,
            "48": -0.1444830189656042,
            "49": -0.01038626929016335,
            "50": 0.14243245826852988,
            "51": 0.1753717497632803,
            "52": -0.031204743913217776,
            "53": -0.13578042204741625,
            "54": 0.18763323218448213,
            "55": 0.13310270802812274,
            "56": -0.0916946089684418,
            "57": -0.09749413763947146,
            "58": 0.09014586885953313,
            "59": 0.0352427204019096,
            "60": 0.0989878137104853,
            "61": 0.17590637522997762,
            "62": -0.19109009082468598,
            "63": -0.13787483728949473,
            "64": -0.15320908605487787,
            "65": -0.05707924834428142,
            "66": 0.005295434134913288,
            "67": -0.1127420055517528,
            "68": 0.18877042463672478,
            "69": 0.0884624202542808,
            "70": 0.15817199405173749,
            "71": 0.07528941244111717,
            "72": -0.035947775057907694,
            "73": -0.08545190483871579,
            "74": -0.11401024584245932,
            "75": 0.07282211720250514,
            "76": -0.14324556102109268,
            "77": -0.10488953535619054,
            "78": -0.08889327518310307,
            "79": 0.13088371788155367,
            "80": -0.13591291184278137,
            "81": -0.19925187738659184,
            "82": 0.1675645553352033,
            "83": -0.09999775865621703,
            "84": 0.15897700064300954,
            "85": -0.09901619485133384,
            "86": 0.1876684034229954,
            "87": -0.03285005803341468,
            "88": -0.2027602284758965,
            "89": 0.0067627304051909405,
            "90": -0.08601361203019689,
            "91": 0.19486512241797696,
            "92": 0.024104060754170896,
            "93": 0.05171063172590475,
            "94": -0.1432794917480487,
            "95": -0.018290611875310493,
            "96": 0.0840439604891178,
            "97": 0.09822400292820709,
            "98": -0.11685266932582726,
            "99": 0.006497200785450862,
            "100": -0.11205787511343394,
            "101": 0.0979203572007654,
            "102": 0.12601852210681538,
            "103": -0.15429846242052317,
            "104": 0.0037790820809922884,
            "105": 0.19189688441726105,
            "106": -0.047125876582097666,
            "107": 0.11827300269205951,
            "108": -0.133860087620079,
            "109": -0.1218457258107339,
            "110": 0.0558858710571794,
            "111": 0.15743764875208302,
            "112": -0.19386959602740247,
            "113": -0.143514012901412,
            "114": 0.08334625861828962,
            "115": -0.07938895481433998,
            "116": 0.003711573104681287,
            "117": 0.19643553257546495,
            "118": 0.06626901098377071,
            "119": -0.0332471363900979,
            "120": 0.19461859946097929,
            "121": -0.027398254698065585,
            "122": -0.002061444983195413,
            "123": 0.024649915544618987,
            "124": -0.0060178179195265165,
            "125": 0.07214407760132625,
            "126": 0.19770911438696598,
            "127": 0.09937183677050225,
            "128": -0.11894577586711991,
            "129": -0.04721866713829837,
            "130": 0.019215192516364592,
            "131": -0.04948717824982935,
            "132": -0.12382783248001664,
            "133": -0.1736458935688101,
            "134": 0.15167559675357498,
            "135": -0.17490490493242192,
            "136": -0.06884301177404857,
            "137": 0.07606980006491994,
            "138": -0.1904971467032085,
            "139": 0.013340473960411707,
            "140": -0.01876910156954319,
            "141": 0.030681495087236506,
            "142": 0.18102901314383954,
            "143": 0.18030220911484282,
            "144": 0.012066809925725501,
            "145": -0.03614855096097662,
            "146": 0.1002397495808423,
            "147": 0.0007322578959827886,
            "148": 0.09569675869447351,
            "149": -0.15202716153328277,
            "150": -0.042603890470874095,
            "151": -0.1822701398830081
          }
        },
        "13": {
          "bias": 0.0646826103883418,
          "weights": {
            "0": 0.1777911683483887,
            "1": -0.07567946974620769,
            "2": -0.07072519943718503,
            "3": 0.13543572894514247,
            "4": -0.020195016019363386,
            "5": -0.007509454605828686,
            "6": -0.1906679645407924,
            "7": 0.18759446033721758,
            "8": 0.0692253505611207,
            "9": -0.11271427356931495,
            "10": 0.16366655243470568,
            "11": -0.02369433819370796,
            "12": -0.14467678449437088,
            "13": -0.0355002978805056,
            "14": -0.010386354673273533,
            "15": 0.0794241997276786,
            "16": 0.16035307777044142,
            "17": 0.16202933822433807,
            "18": -0.02564660984272096,
            "19": 0.18652827501388117,
            "20": -0.03410339697817533,
            "21": -0.20051246360428673,
            "22": -0.04828652956970499,
            "23": 0.14943367213062309,
            "24": 0.1176592183351666,
            "25": 0.08916391244149986,
            "26": -0.15406672256074555,
            "27": -0.20095699609484113,
            "28": 0.1807473885980487,
            "29": -0.1536851848750668,
            "30": 0.11619947958378557,
            "31": 0.022908901704920152,
            "32": 0.009650125449670529,
            "33": 0.07779886301131873,
            "34": -0.009072686238810553,
            "35": 0.18326829572200534,
            "36": -0.09297925029558718,
            "37": 0.17106383256708088,
            "38": 0.1758645406303349,
            "39": 0.17877186540291046,
            "40": -0.10991824938897511,
            "41": -0.17540970177797655,
            "42": 0.07478830119873682,
            "43": -0.17525252871547806,
            "44": 0.12649241060380742,
            "45": 0.023978080614250753,
            "46": 0.09644938567110235,
            "47": 0.09233810155971867,
            "48": 0.10870599367515375,
            "49": 0.19121876053286235,
            "50": 0.05690578711993405,
            "51": 0.08749853401561798,
            "52": -0.16400624385309776,
            "53": -0.15937682065723077,
            "54": 0.13960235675689855,
            "55": -0.18857361257765778,
            "56": -0.0045544412179240054,
            "57": 0.1977341932634715,
            "58": 0.04316112533185352,
            "59": 0.1674329127740934,
            "60": 0.1049397356195134,
            "61": 0.07981390447136581,
            "62": 0.09184571801138476,
            "63": 0.13812226241333153,
            "64": -0.05521100633117902,
            "65": 0.06618192641237605,
            "66": -0.10855362184236199,
            "67": -0.079682312929687,
            "68": -0.16310927734901137,
            "69": -0.134009602391083,
            "70": -0.1434211699956161,
            "71": 0.19216100931541316,
            "72": -0.0868980795241219,
            "73": 0.143806650133796,
            "74": 0.17804583989050166,
            "75": 0.018192351347578756,
            "76": -0.1722301433185198,
            "77": -0.03689287318096677,
            "78": -0.03983882673378773,
            "79": -0.010279690403230696,
            "80": -0.02011722351781056,
            "81": 0.01526595005283994,
            "82": 0.14804351439942315,
            "83": 0.11920510146606109,
            "84": 0.06755638368675973,
            "85": -0.17881289332015932,
            "86": -0.145526299200267,
            "87": 0.07489470447110295,
            "88": 0.18797401431090313,
            "89": -0.14300837571857,
            "90": -0.10603512186280534,
            "91": 0.13796692397796215,
            "92": 0.19495538170370652,
            "93": -0.13614750579746573,
            "94": 0.06041161885403734,
            "95": 0.12471268433413507,
            "96": -0.1708436200860126,
            "97": -0.06852053952541183,
            "98": 0.13630957303394822,
            "99": 0.06926903390705463,
            "100": -0.02842042778825089,
            "101": 0.13782903226636675,
            "102": -0.0843210783948169,
            "103": -0.08609204142417459,
            "104": 0.06815940126231239,
            "105": 0.08799899467120376,
            "106": -0.06839777545120031,
            "107": 0.050651254573980405,
            "108": 0.08245249565404511,
            "109": 0.19414280985331145,
            "110": -0.16141056715492028,
            "111": 0.08672374570931514,
            "112": 0.03940549192958133,
            "113": -0.1076913696245794,
            "114": 0.031944517146225274,
            "115": 0.015661924064163214,
            "116": -0.19926752738992987,
            "117": -0.1865730019456794,
            "118": -0.0904283762536827,
            "119": -0.00932136701146596,
            "120": -0.15972330072860128,
            "121": 0.14909609950185967,
            "122": -0.027675285517595537,
            "123": -0.07534691193433371,
            "124": -0.008171745156773115,
            "125": 0.15940382477946136,
            "126": 0.1971762023032966,
            "127": 0.053932283974537296,
            "128": -0.19491948932605133,
            "129": 0.08264648180119516,
            "130": 0.16177272559462885,
            "131": -0.021388997395030876,
            "132": 0.056544841975622276,
            "133": 0.19145490770700832,
            "134": 0.07239952518034316,
            "135": -0.16660745933490181,
            "136": 0.02046630470879411,
            "137": 0.16180226169554077,
            "138": -0.14483819094069258,
            "139": -0.1454496013261929,
            "140": 0.02234427612603865,
            "141": 0.06085226189993682,
            "142": -0.009025512935454097,
            "143": 0.030589719759229375,
            "144": -0.11846207789532301,
            "145": 0.025101277817484835,
            "146": -0.14519532903000665,
            "147": -0.026409242746866353,
            "148": 0.048249740055041,
            "149": -0.040161157357768325,
            "150": 0.05589455938742686,
            "151": -0.1371049294439271
          }
        },
        "14": {
          "bias": -0.06641307571101948,
          "weights": {
            "0": 0.05574585099200177,
            "1": -0.09224896109950784,
            "2": -0.1077260645059185,
            "3": 0.014742064577745217,
            "4": 0.0036960981183460557,
            "5": -0.028994963042439884,
            "6": 0.005147893579665652,
            "7": -0.09190019763417133,
            "8": -0.052352550396282775,
            "9": 0.17615184049660204,
            "10": -0.1381314663551905,
            "11": 0.15049750968542475,
            "12": -0.13535649600851823,
            "13": 0.13526849677505512,
            "14": 0.06238235113510773,
            "15": -0.13740149871257928,
            "16": 0.014458747213056188,
            "17": 0.0832485299033262,
            "18": -0.10210229982392403,
            "19": -0.15935599621504562,
            "20": 0.10251682161245955,
            "21": -0.16850169828013975,
            "22": -0.15016454114949154,
            "23": -0.19841930176172717,
            "24": 0.15293195460234016,
            "25": 0.1405808318277147,
            "26": 0.03807985431991478,
            "27": -0.11514883492179774,
            "28": -0.002774109161342292,
            "29": -0.19260151694546587,
            "30": 0.18864725817427938,
            "31": 0.19491148388465845,
            "32": 0.19543917596046068,
            "33": -0.07404459918316143,
            "34": -0.01703166992713662,
            "35": -0.18421028405350506,
            "36": 0.10822933997010827,
            "37": -0.1266397051875954,
            "38": 0.08703222835365207,
            "39": 0.1278338758499713,
            "40": -0.06475739955340878,
            "41": 0.14279615228728249,
            "42": -0.12385861490698767,
            "43": -0.0892247612917281,
            "44": 0.1668834042570671,
            "45": 0.06279234021535456,
            "46": 0.08340422582882177,
            "47": -0.018216981376115566,
            "48": 0.0944565843312665,
            "49": -0.09775536271826107,
            "50": 0.003949213102220313,
            "51": -0.13126586754141598,
            "52": 0.018693076080014467,
            "53": 0.05085238466026953,
            "54": -0.15291076338548953,
            "55": 0.12970811278531896,
            "56": 0.07980148691487188,
            "57": 0.09200343537575648,
            "58": 0.10916982227887059,
            "59": 0.039731949203760046,
            "60": -0.12704681265548531,
            "61": -0.0629458016139985,
            "62": -0.18186422370871994,
            "63": 0.10142568965138989,
            "64": 0.12426861914839622,
            "65": -0.014830744982394598,
            "66": -0.17845538639342937,
            "67": 0.06696039024932914,
            "68": 0.13974641175617636,
            "69": -0.07386218520930372,
            "70": 0.018527552954159594,
            "71": 0.04524422059834472,
            "72": -0.19987608885691097,
            "73": 0.07998972966772767,
            "74": -0.1704732978296582,
            "75": -0.04438620491683949,
            "76": -0.17791425844868833,
            "77": 0.11485791156612173,
            "78": 0.1219265068286886,
            "79": -0.01642223466628765,
            "80": -0.046689524133008344,
            "81": 0.11951263419967195,
            "82": -0.0027491757254706666,
            "83": -0.19169854392018856,
            "84": -0.006569106913615864,
            "85": 0.12415906996177536,
            "86": -0.02826798809832568,
            "87": -0.04592049225118894,
            "88": -0.047961507836197174,
            "89": 0.041155393030410596,
            "90": -0.17139387734054132,
            "91": -0.06756406146488765,
            "92": -0.19521272011214,
            "93": -0.03243075682374323,
            "94": -0.15530560769202625,
            "95": -0.09370857497601158,
            "96": -0.1532338607557061,
            "97": -0.03849608250791885,
            "98": -0.01133888813625484,
            "99": 0.11191618079423046,
            "100": -0.12722612307514689,
            "101": 0.17892270566259766,
            "102": 0.015943468135996574,
            "103": -0.089079590596661,
            "104": -0.008467149038358573,
            "105": 0.10544613428171475,
            "106": 0.17062319776919782,
            "107": 0.013795887353563146,
            "108": 0.048069170352353335,
            "109": -0.19854318358589282,
            "110": -0.10967971839747133,
            "111": -0.035140136662428316,
            "112": -0.003370124393731962,
            "113": 0.1211356750618546,
            "114": -0.16265151395866698,
            "115": 0.0035526196644380986,
            "116": -0.0007431373190964737,
            "117": 0.13919264399104894,
            "118": -0.12833711587096486,
            "119": 0.10198145768799984,
            "120": 0.06910846052554998,
            "121": -0.06040949590335668,
            "122": -0.1721601051069165,
            "123": 0.0817653278135353,
            "124": 0.15362856824473733,
            "125": -0.021301834905537366,
            "126": 0.1553854972684077,
            "127": 0.08975870201963937,
            "128": 0.1962899823284289,
            "129": -0.10664321949946061,
            "130": -0.15994471390892848,
            "131": 0.19290096761832518,
            "132": 0.14866547079119344,
            "133": -0.06803954232501244,
            "134": -0.05067560515218279,
            "135": -0.12263046503939108,
            "136": -0.030317313452829318,
            "137": 0.07934111807512324,
            "138": 0.15149278871680505,
            "139": -0.1131724645853091,
            "140": 0.08825762664482378,
            "141": -0.18096550654081447,
            "142": 0.13632015880377418,
            "143": 0.11864029429774359,
            "144": 0.0643828082289853,
            "145": 0.13498949904896196,
            "146": -0.018487913767335697,
            "147": -0.016389178600184663,
            "148": -0.06537763197260302,
            "149": -0.05191104319608047,
            "150": -0.03458608229070417,
            "151": -0.09514713498178037
          }
        },
        "15": {
          "bias": 0.13157638319248519,
          "weights": {
            "0": 0.04680412947664912,
            "1": -0.07851614189901508,
            "2": -0.01383841793930806,
            "3": -0.1480657063493234,
            "4": -0.08791043445740966,
            "5": 0.05150438886742244,
            "6": 0.1863359963640517,
            "7": 0.04411925617006841,
            "8": 0.15919398637928286,
            "9": -0.18661860757404444,
            "10": 0.009407299656669211,
            "11": 0.01407401326117922,
            "12": -0.18600484334212064,
            "13": -0.11674996173237984,
            "14": 0.16589977602323153,
            "15": -0.05038118321653538,
            "16": 0.16750790525055428,
            "17": -0.07798877382724122,
            "18": 0.1805549101856227,
            "19": -0.11018636295884515,
            "20": 0.0735207799102184,
            "21": -0.03432632691498592,
            "22": -0.16292603010915144,
            "23": -0.11707180389059232,
            "24": 0.06331725249463283,
            "25": 0.10859501830180572,
            "26": 0.17408461090337352,
            "27": 0.04947175389039217,
            "28": -0.15405713529333978,
            "29": -0.11602672429845674,
            "30": -0.09811677174625293,
            "31": -0.11875572040800524,
            "32": 0.09957633101296137,
            "33": 0.12234543464152862,
            "34": -0.06700548253750706,
            "35": 0.06208214987168349,
            "36": -0.0847544233842624,
            "37": -0.040692803774907124,
            "38": -0.0997663033367171,
            "39": -0.06366008027170286,
            "40": 0.001516322132189086,
            "41": -0.03311875909161739,
            "42": 0.017690025194004734,
            "43": -0.01040804023598564,
            "44": -0.011280887230834,
            "45": -0.11949903105089495,
            "46": 0.14448863561690556,
            "47": -0.05439253144034357,
            "48": -0.06375877613588138,
            "49": -0.13864358450373085,
            "50": -0.10071444996299136,
            "51": 0.10245169716023961,
            "52": 0.015013320244136425,
            "53": -0.04173960275603447,
            "54": -0.1971150990127628,
