export const flattenData2 = {
    "name": "FLATTEN",
    "data": [
      [
        -42.231773,
        166.41217,
        -22.248783,
        -0.514193,
        -0.026138,
        -0.857276,
        0.157928,
        0.979559,
        -0.124591,
        -42.317841,
        199.535965,
        -27.059431,
        -0.507011,
        -0.032721,
        -0.861318,
        0.163264,
        0.977544,
        -0.133241,
        -46.571487,
        182.506912,
        -79.554604,
        -0.48901,
        -0.04951,
        -0.870872,
        0.166561,
        0.974718,
        -0.14894,
        -48.846104,
        102.203178,
        -124.399826,
        -0.46869,
        -0.074596,
        -0.880208,
        0.164942,
        0.971514,
        -0.170162,
        -43.457371,
        99.445732,
        -205.580017,
        -0.449738,
        -0.091149,
        -0.888497,
        0.168319,
        0.968305,
        -0.184536,
        -30.171898,
        3.682614,
        -233.942627,
        -0.420675,
        -0.114633,
        -0.89994,
        0.168899,
        0.964746,
        -0.201839,
        -51.659389,
        -72.339607,
        -306.453735,
        -0.389261,
        -0.162907,
        -0.906608,
        0.162749,
        0.956589,
        -0.241766,
        -66.950264,
        -131.089752,
        -340.890472,
        -0.367613,
        -0.226892,
        -0.901876,
        0.148623,
        0.942984,
        -0.297814,
        -53.731236,
        -216.848694,
        -342.824036,
        -0.343568,
        -0.313699,
        -0.885186,
        0.126875,
        0.918416,
        -0.374719,
        -62.279537,
        -254.5672,
        -390.173126,
        -0.334754,
        -0.396257,
        -0.854939,
        0.107533,
        0.885293,
        -0.452431,
        -16.43331,
        -317.394653,
        -349.151642,
        -0.321339,
        -0.474538,
        -0.819484,
        0.093875,
        0.845155,
        -0.526214,
        -2.964732,
        -446.73056,
        -266.927643,
        -0.274707,
        -0.578024,
        -0.768391,
        0.079687,
        0.7827,
        -0.617277,
        21.416912,
        -345.731689,
        -226.189026,
        -0.23761,
        -0.650835,
        -0.72108,
        0.08236,
        0.726168,
        -0.682566,
        33.681461,
        -443.067108,
        -202.719406,
        -0.208155,
        -0.702084,
        -0.680991,
        0.088082,
        0.679958,
        -0.727942,
        46.413906,
        -329.707336,
        -124.816719,
        -0.186651,
        -0.73713,
        -0.649461,
        0.098912,
        0.64362,
        -0.758927,
        58.471607,
        -269.279327,
        -62.827808,
        -0.170983,
        -0.762848,
        -0.62356,
        0.108874,
        0.614376,
        -0.781466,
        35.183403,
        -193.445435,
        -11.034988,
        -0.155194,
        -0.782795,
        -0.602617,
        0.116513,
        0.591247,
        -0.79803,
        20.878357,
        -147.613022,
        -3.556227,
        -0.143817,
        -0.797126,
        -0.586435,
        0.120375,
        0.574104,
        -0.809885
      ]
    ],
    "net": {
      "layers": [
        {
          "0": {},
          "1": {},
          "2": {},
          "3": {},
          "4": {},
          "5": {},
          "6": {},
          "7": {},
          "8": {},
          "9": {},
          "10": {},
          "11": {},
          "12": {},
          "13": {},
          "14": {},
          "15": {},
          "16": {},
          "17": {},
          "18": {},
          "19": {},
          "20": {},
          "21": {},
          "22": {},
          "23": {},
          "24": {},
          "25": {},
          "26": {},
          "27": {},
          "28": {},
          "29": {},
          "30": {},
          "31": {},
          "32": {},
          "33": {},
          "34": {},
          "35": {},
          "36": {},
          "37": {},
          "38": {},
          "39": {},
          "40": {},
          "41": {},
          "42": {},
          "43": {},
          "44": {},
          "45": {},
          "46": {},
          "47": {},
          "48": {},
          "49": {},
          "50": {},
          "51": {},
          "52": {},
          "53": {},
          "54": {},
          "55": {},
          "56": {},
          "57": {},
          "58": {},
          "59": {},
          "60": {},
          "61": {},
          "62": {},
          "63": {},
          "64": {},
          "65": {},
          "66": {},
          "67": {},
          "68": {},
          "69": {},
          "70": {},
          "71": {},
          "72": {},
          "73": {},
          "74": {},
          "75": {},
          "76": {},
          "77": {},
          "78": {},
          "79": {},
          "80": {},
          "81": {},
          "82": {},
          "83": {},
          "84": {},
          "85": {},
          "86": {},
          "87": {},
          "88": {},
          "89": {},
          "90": {},
          "91": {},
          "92": {},
          "93": {},
          "94": {},
          "95": {},
          "96": {},
          "97": {},
          "98": {},
          "99": {},
          "100": {},
          "101": {},
          "102": {},
          "103": {},
          "104": {},
          "105": {},
          "106": {},
          "107": {},
          "108": {},
          "109": {},
          "110": {},
          "111": {},
          "112": {},
          "113": {},
          "114": {},
          "115": {},
          "116": {},
          "117": {},
          "118": {},
          "119": {},
          "120": {},
          "121": {},
          "122": {},
          "123": {},
          "124": {},
          "125": {},
          "126": {},
          "127": {},
          "128": {},
          "129": {},
          "130": {},
          "131": {},
          "132": {},
          "133": {},
          "134": {},
          "135": {},
          "136": {},
          "137": {},
          "138": {},
          "139": {},
          "140": {},
          "141": {},
          "142": {},
          "143": {},
          "144": {},
          "145": {},
          "146": {},
          "147": {},
          "148": {},
          "149": {},
          "150": {},
          "151": {},
          "152": {},
          "153": {},
          "154": {},
          "155": {},
          "156": {},
          "157": {},
          "158": {},
          "159": {},
          "160": {}
        },
        {
          "0": {
            "bias": 0.048874994214154865,
            "weights": {
              "0": 0.11453656838824396,
              "1": 0.13433028820251308,
              "2": -0.06459836702653445,
              "3": 0.17953679494227753,
              "4": -0.07324760874197393,
              "5": -0.04773349993685885,
              "6": 0.12316075917728621,
              "7": 0.0452700195529109,
              "8": 0.08337935365823733,
              "9": 0.015566352943400948,
              "10": 0.10240259807803084,
              "11": 0.175740079726982,
              "12": 0.09887486624821748,
              "13": 0.1436639679614343,
              "14": -0.030782700512673063,
              "15": -0.0058934567279558935,
              "16": -0.004996731558519292,
              "17": 0.1451361652181356,
              "18": -0.07742899325426168,
              "19": -0.15723231702049878,
              "20": -0.12523110973081739,
              "21": 0.11568087370707324,
              "22": 0.128950639143649,
              "23": -0.15086379404021508,
              "24": 0.19732152983175266,
              "25": 0.15559702449241367,
              "26": -0.13092781435638728,
              "27": 0.12150772880365693,
              "28": -0.14091398212841297,
              "29": 0.16351091967524012,
              "30": 0.14157609236290017,
              "31": 0.04687347084194674,
              "32": 0.05611647923993903,
              "33": 0.062086161742000025,
              "34": 0.026481463459084028,
              "35": 0.08025251777634429,
              "36": -0.14650755737327373,
              "37": -0.03626379112842107,
              "38": -0.1848300861138847,
              "39": -0.09352152930098907,
              "40": -0.11110423878053764,
              "41": -0.07295955105211563,
              "42": -0.001988728814167567,
              "43": -0.05315874168223684,
              "44": 0.1950812935917154,
              "45": -0.12150564710244924,
              "46": -0.06550559957809507,
              "47": -0.07382259358409864,
              "48": -0.060646810918930066,
              "49": -0.08839384660378007,
              "50": -0.13052725617114713,
              "51": -0.14839243750466097,
              "52": 0.08366544375085923,
              "53": 0.07423315320879283,
              "54": 0.004019874499119418,
              "55": -0.19413398569571985,
              "56": -0.17066631027453624,
              "57": -0.0674360201503088,
              "58": -0.18571056992277846,
              "59": -0.06086557238262121,
              "60": 0.08906069807054462,
              "61": -0.07314751253379999,
              "62": -0.004813431758523274,
              "63": 0.10092025296110078,
              "64": -0.04850577495015827,
              "65": 0.01201232800658164,
              "66": 0.04486667371039304,
              "67": 0.07622719443759075,
              "68": 0.006733299964597361,
              "69": -0.09531020164368209,
              "70": -0.16035142769431676,
              "71": -0.1786957562348489,
              "72": 0.14433186952400606,
              "73": 0.1534630752090319,
              "74": 0.1720916961871005,
              "75": -0.09514735463496024,
              "76": -0.01151065213240526,
              "77": 0.16406618911303633,
              "78": -0.07526519002940016,
              "79": -0.12059657603438828,
              "80": 0.07572431846312165,
              "81": 0.14028989988647472,
              "82": -0.1386534579591385,
              "83": 0.05409194793219829,
              "84": -0.11299478369303903,
              "85": -0.06446142014013796,
              "86": -0.16210428060046506,
              "87": 0.1651698049516696,
              "88": 0.12755058224424143,
              "89": 0.00010899597184908151,
              "90": 0.15944432618237905,
              "91": -0.10849060664662759,
              "92": -0.13585486433046132,
              "93": -0.02152830609009091,
              "94": -0.051991625470455084,
              "95": 0.11095533707571605,
              "96": -0.05417136619510106,
              "97": 0.15600141844775725,
              "98": -0.15906530034511743,
              "99": 0.06995930410008713,
              "100": 0.10161175363137558,
              "101": 0.17171079064290778,
              "102": 0.17738391870467182,
              "103": 0.02177904140663348,
              "104": 0.1807895964597345,
              "105": 0.1292826140491959,
              "106": -0.02509487348807261,
              "107": -0.1092496134082023,
              "108": -0.11047479538191929,
              "109": -0.12430581952369495,
              "110": -0.00961888531424062,
              "111": 0.1588314270128329,
              "112": -0.07503240061265762,
              "113": 0.051824991928295976,
              "114": 0.17730504191167334,
              "115": -0.12230766377058948,
              "116": -0.10925497325417426,
              "117": -0.0007873633320850872,
              "118": 0.09379763708659192,
              "119": -0.19217390094491985,
              "120": 0.10206824964819214,
              "121": 0.05158329421809627,
              "122": 0.16895441564878594,
              "123": -0.09300611206010488,
              "124": -0.11533702154512564,
              "125": -0.17978069075031042,
              "126": 0.10338340250418389,
              "127": 0.15869407657742565,
              "128": 0.12275978871673156,
              "129": -0.12957935792916567,
              "130": -0.15547463352854587,
              "131": -0.040097221573154644,
              "132": -0.005742536161331571,
              "133": 0.04818014475452173,
              "134": -0.04606510097905115,
              "135": 0.1755291210830852,
              "136": -0.038474777672697004,
              "137": -0.14938996277024533,
              "138": 0.06697138439163194,
              "139": 0.044002026923168,
              "140": 0.1333812587997857,
              "141": -0.08546119021803349,
              "142": -0.1758895099235529,
              "143": 0.1913176367245791,
              "144": -0.12793155183740246,
              "145": -0.1723822187433608,
              "146": 0.10847957781417684,
              "147": 0.10094382179803356,
              "148": -0.016167075775248733,
              "149": -0.0434140010317583,
              "150": 0.0050797291998433,
              "151": 0.0037011446236820673,
              "152": 0.016396037606698523,
              "153": -0.1297864361835482,
              "154": -0.09143065357141664,
              "155": 0.175082415526528,
              "156": 0.07466526770281831,
              "157": 0.12174037566269558,
              "158": 0.023436340429876242,
              "159": -0.09256245997969893,
              "160": -0.16258596774122377
            }
          },
          "1": {
            "bias": 0.11537861551828427,
            "weights": {
              "0": -0.18147916513085544,
              "1": -0.07855640139155093,
              "2": -0.07118237509298107,
              "3": -0.15184609729700596,
              "4": 0.10284084024527633,
              "5": -0.038425828376024936,
              "6": -0.030182984951354703,
              "7": 0.18830310503217984,
              "8": 0.14715462286471404,
              "9": 0.029936865290987505,
              "10": 0.19479742178180784,
              "11": 0.17643123030835073,
              "12": -0.19200981656032357,
              "13": -0.03512323932800797,
              "14": -0.010739471312956547,
              "15": -0.05457702753390908,
              "16": -0.03838330575007569,
              "17": 0.06853269572724667,
              "18": 0.07956536634145475,
              "19": 0.19773466365900874,
              "20": 0.1676351550854224,
              "21": -0.18209877354388918,
              "22": 0.193728745178266,
              "23": -0.034546527329321994,
              "24": -0.05729746458728907,
              "25": 0.035851804530390795,
              "26": 0.1228100008830057,
              "27": -0.15359857880148195,
              "28": 0.04101222744794123,
              "29": 0.11652182304402144,
              "30": 0.06535306399024961,
              "31": -0.01951170412593633,
              "32": -0.012767933038901155,
              "33": -0.04057834471463338,
              "34": -0.0084990965194074,
              "35": 0.05276301418548771,
              "36": 0.1245643281084939,
              "37": -0.01722437908517903,
              "38": 0.013517799139466874,
              "39": -0.07122468553383321,
              "40": 0.10358201660524213,
              "41": 0.035617058020503384,
              "42": -0.12934586132154247,
              "43": 0.15301030835439322,
              "44": 0.009181464800260043,
              "45": 0.16130079071640452,
              "46": -0.012290784875259812,
              "47": -0.1809306705694925,
              "48": -0.021809421960670154,
              "49": 0.11462706065433681,
              "50": 0.06734326401606047,
              "51": 0.16254225806789233,
              "52": 0.005546554303723534,
              "53": -0.007997141443642861,
              "54": 0.18204712335734788,
              "55": -0.17788285403073503,
              "56": 0.11115835032969991,
              "57": -0.11185200664576361,
              "58": 0.03126709338700488,
              "59": 0.03398578335549074,
              "60": 0.18424119728373387,
              "61": 0.1741810701223921,
              "62": 0.03639209712882043,
              "63": 0.06650175433634394,
              "64": 0.12722037679821804,
              "65": -0.08825767478466538,
              "66": 0.08939128683403423,
              "67": 0.027396170570887557,
              "68": 0.04500636640792154,
              "69": -0.18481817785129478,
              "70": 0.07508370709495811,
              "71": -0.12769211809610354,
              "72": 0.023451007452891047,
              "73": -0.12854080809115656,
              "74": -0.00013120082376120594,
              "75": -0.08106505825143852,
              "76": 0.04772036636075925,
              "77": -0.12015551770368181,
              "78": 0.16926032101287858,
              "79": -0.12134191103353476,
              "80": 0.05385040028062295,
              "81": -0.039794955593776764,
              "82": -0.02301362345698763,
              "83": 0.18187718671401354,
              "84": -0.023438293949215743,
              "85": -0.13727585833302625,
              "86": 0.04785584136922771,
              "87": -0.07914017985178838,
              "88": 0.06696382405158363,
              "89": 0.16810274043375809,
              "90": 0.09492465757819969,
              "91": 0.01722994816839554,
              "92": 0.1314171096919465,
              "93": 0.030527937585602096,
              "94": 0.14083388408884087,
              "95": -0.11426100708546393,
              "96": -0.0814800456282567,
              "97": -0.162909038520097,
              "98": -0.028189621726137815,
              "99": -0.14716456387050153,
              "100": -0.16027116255255883,
              "101": 0.15432164215177602,
              "102": -0.154678745310506,
              "103": 0.030220027135492693,
              "104": -0.002645890248816068,
              "105": 0.01309531835106993,
              "106": -0.10183840108035583,
              "107": 0.005540642711679721,
              "108": 0.13192820877442105,
              "109": -0.16975332775102756,
              "110": -0.1983712564235423,
              "111": -0.07314241631864099,
              "112": 0.09883534466290575,
              "113": 0.004580662933375389,
              "114": 0.037190523023878874,
              "115": -0.14648542360483477,
              "116": -0.16734756783634216,
              "117": 0.1327814828829882,
              "118": 0.15351490607553717,
              "119": 0.13731720031885553,
              "120": 0.047719577166297975,
              "121": -0.0035157158815493973,
              "122": -0.06434404102260001,
              "123": -0.08671035876203495,
              "124": 0.00440768883573508,
              "125": -0.10768871959758688,
              "126": 0.12307539491385848,
              "127": 0.18919963873604273,
              "128": -0.18801361748925363,
              "129": 0.12879483463282754,
              "130": 0.15354053407521667,
              "131": -0.13891958735350174,
              "132": -0.09145961238663174,
              "133": 0.008087404507961781,
              "134": 0.10355816647231003,
              "135": -0.18801784289872026,
              "136": -0.15508678601347312,
              "137": -0.07827617979160925,
              "138": -0.10599898190686934,
              "139": -0.18303068091321975,
              "140": 0.1918048423287911,
              "141": 0.054999218627203646,
              "142": 0.19238723432700564,
              "143": -0.05500188677095499,
              "144": -0.02914321757322477,
              "145": -0.1500329217566413,
              "146": -0.03160844744894842,
              "147": -0.09169091195235742,
              "148": 0.10350449221681234,
              "149": -0.1456989283866596,
              "150": -0.16638118376805414,
              "151": 0.1806982388857912,
              "152": 0.18019697913020652,
              "153": 0.011765030299669134,
              "154": 0.0825248157647826,
              "155": -0.05484541608820079,
              "156": -0.054376649322881575,
              "157": 0.0642327944681017,
              "158": -0.13191725121877837,
              "159": -0.15561474794452948,
              "160": -0.15511833733157646
            }
          },
          "2": {
            "bias": 0.04445042124323501,
            "weights": {
              "0": 0.10777104024027125,
              "1": -0.1733544520448519,
              "2": -0.20203265425077024,
              "3": -0.09579876121553159,
              "4": 0.020399948017689237,
              "5": -0.16859224450300817,
              "6": 0.17070098162298922,
              "7": -0.05529697634343736,
              "8": -0.18018563580269134,
              "9": 0.004353077782777054,
              "10": 0.024437785969330363,
              "11": 0.17502650781968973,
              "12": 0.0010417090840082728,
              "13": -0.027472780085692546,
              "14": 0.05418361353647716,
              "15": -0.11769157524855489,
              "16": 0.1327180245703895,
              "17": 0.13992561223527278,
              "18": -0.12761188370445492,
              "19": -0.16068538298257437,
              "20": -0.005829291073467477,
              "21": 0.06161751600644031,
              "22": 0.188920254662239,
              "23": -0.06846906893471096,
              "24": 0.011021401370851105,
              "25": -0.0107620749071212,
              "26": -0.1127746513645933,
              "27": 0.11464611403958061,
              "28": -0.05455611149265897,
              "29": -0.19822315333217186,
              "30": -0.15868753304426303,
              "31": 0.06212770067054657,
              "32": -0.20375740985960605,
              "33": -0.04414073817789767,
              "34": -0.08276247309407357,
              "35": -0.020075391272357374,
              "36": 0.18441654185390108,
              "37": 0.02590102331449304,
              "38": -0.028798112342061515,
              "39": 0.011060555907967319,
              "40": 0.06237636674030112,
              "41": -0.1705866239018387,
              "42": -0.14239514338173936,
              "43": -0.05738574563859433,
              "44": -0.04535240266033192,
              "45": 0.022316104476179606,
              "46": -0.07051583641429555,
              "47": -0.046753716257661344,
              "48": -0.13486187040534425,
              "49": 0.1858110315584802,
              "50": -0.059706932829401455,
              "51": 0.19533686962139413,
              "52": 0.13311265420550777,
              "53": 0.02190076180044233,
              "54": -0.13959667435255022,
              "55": 0.16721182557286374,
              "56": -0.15130027354882997,
              "57": 0.03746412239207673,
              "58": -0.01893217164312481,
              "59": 0.12520176217295664,
              "60": 0.18188964459036897,
              "61": -0.1094428359163053,
              "62": 0.0789639406948819,
              "63": 0.12293559243083504,
              "64": 0.1125190500839051,
              "65": -0.035248883892503344,
              "66": -0.19481688181281775,
              "67": 0.11474514606680714,
              "68": 0.14679575430798483,
              "69": 0.07372499566214832,
              "70": 0.05552838119090783,
              "71": -0.050569090265361494,
              "72": -0.16987007045256816,
              "73": -0.07249654534179766,
              "74": 0.049859705195144814,
              "75": 0.18512932619002437,
              "76": 0.10291713653268761,
              "77": 0.011761267424317394,
              "78": -0.16857940176958738,
              "79": -0.17299600568610524,
              "80": 0.0018353156975033165,
              "81": 0.1460393186388141,
              "82": -0.07496947070174421,
              "83": -0.05720545593128796,
              "84": -0.014808917465051799,
              "85": 0.0357472222542096,
              "86": -0.004100682586195625,
              "87": 0.10308990202394137,
              "88": -0.17719678296692562,
              "89": 0.16387918005165678,
              "90": 0.053228436929619705,
              "91": -0.013311930730119523,
              "92": 0.11638652539958923,
              "93": 0.15033925643892737,
              "94": -0.1711020711068433,
              "95": 0.08438671669944058,
              "96": -0.05149711885374988,
              "97": -0.08359610018766415,
              "98": -0.08008857441861508,
              "99": -0.10363723550879288,
              "100": -0.11315995632209044,
              "101": -0.035673076024945655,
              "102": -0.08460463530090807,
              "103": 0.18230939162623327,
              "104": 0.08723796956391015,
              "105": -0.16694932146352962,
              "106": 0.12144736559212697,
              "107": -0.012182733663236132,
              "108": -0.0005704032476723212,
              "109": 0.06816040680984246,
              "110": 0.005070394091580236,
              "111": -0.1771213484520457,
              "112": -0.052030739770337,
              "113": 0.1595479720753085,
              "114": -0.08506869655562693,
              "115": 0.17885983880768033,
              "116": -0.19507936200330203,
              "117": 0.16851210079270804,
              "118": -0.18911148651512896,
              "119": 0.1304306969859572,
              "120": 0.13089350226064156,
              "121": 0.14914942686171037,
              "122": 0.13406605504953736,
              "123": -0.20005108792669835,
              "124": 0.013441814983992387,
              "125": -0.05954824831939217,
              "126": 0.11897753361219131,
              "127": -0.09455637341402681,
              "128": -0.15870108485030845,
              "129": -0.15503062449722987,
              "130": 0.11109729580495019,
              "131": 0.08564346334668259,
              "132": -0.0025802724076249796,
              "133": 0.06384975255084821,
              "134": 0.13942703993132294,
              "135": 0.14931349555517673,
              "136": 0.08795970689353168,
              "137": 0.0007771694694953173,
              "138": 0.1111261687931324,
              "139": 0.1763193710692473,
              "140": 0.003534721105086272,
              "141": 0.1397429771231443,
              "142": 0.1883066296590724,
              "143": 0.0919882713015654,
              "144": 0.15487220012122602,
              "145": -0.15775274925240537,
              "146": -0.0627671555758051,
              "147": -0.12029647832308274,
              "148": -0.1068019489116007,
              "149": -0.026513978344774387,
              "150": 0.1486274034777448,
              "151": 0.07080288399495488,
              "152": -0.14693919003381115,
              "153": -0.11811090915807841,
              "154": 0.10724612207561256,
              "155": -0.11842969727211698,
              "156": -0.11045757562772938,
              "157": -0.014790617604903378,
              "158": 0.07488833872509769,
              "159": -0.14955545200277315,
              "160": 0.10261853265043938
            }
          },
          "3": {
            "bias": -0.10843715701304579,
            "weights": {
              "0": -0.03656455045355605,
              "1": 0.18253107820760028,
              "2": -0.07273416005067929,
              "3": -0.12746419287462366,
              "4": -0.035190512727190836,
              "5": -0.17686580513778827,
              "6": -0.09274652398440862,
              "7": 0.19344942846296462,
              "8": -0.09954881528012431,
              "9": -0.09151707319358582,
              "10": 0.0392834726959899,
              "11": -0.1691401319034232,
              "12": -0.1815667821458688,
              "13": -0.14347376016258867,
              "14": 0.15469098884933052,
              "15": 0.07663728080954117,
              "16": -0.13369714514972286,
              "17": 0.07322019339512759,
              "18": 0.020927135624218714,
              "19": -0.15196741334479474,
              "20": -0.07198795566394403,
              "21": -0.08683304208228527,
              "22": -0.057612375332208844,
              "23": -0.04899840950271714,
              "24": -0.026424918966200958,
              "25": 0.040213035475232826,
              "26": 0.148773321036443,
              "27": 0.13574254069331868,
              "28": 0.17135776176677428,
              "29": -0.13232490526318474,
              "30": -0.1844655138015946,
              "31": 0.004195116313561212,
              "32": -0.0389837103370407,
              "33": 0.18711742241430418,
              "34": -0.18382721068147917,
              "35": 0.1147754638046951,
              "36": -0.14127670939983364,
              "37": 0.19369955041103995,
              "38": -0.07212953021181484,
              "39": 0.12089439503088317,
              "40": 0.09101702857124833,
              "41": 0.0024894707524399083,
              "42": -0.11136197158861966,
              "43": 0.13894611626366393,
              "44": -0.17535895699582105,
              "45": 0.19044350503484006,
              "46": -0.050446163270892554,
              "47": 0.14492623903220953,
              "48": -0.007512803798834224,
              "49": -0.07715204879725716,
              "50": 0.12844682854745101,
              "51": 0.18640187355856322,
              "52": 0.001230813681075389,
              "53": -0.19383751611971461,
              "54": 0.1059164533712484,
              "55": 0.08955814221422641,
              "56": 0.19172374995644917,
              "57": -0.10814078374750996,
              "58": -0.06034364582496351,
              "59": -0.061437445705876344,
              "60": -0.16081327788433364,
              "61": 0.17918410235502802,
              "62": 0.05741038223095442,
              "63": 0.08694716327968549,
              "64": 0.023022509716245504,
              "65": -0.0895375498737444,
              "66": 0.18861597361716467,
              "67": -0.16294805097964565,
              "68": 0.060226514638472436,
              "69": 0.19863685451698881,
              "70": -0.06450205499257886,
              "71": -0.04918920282323083,
              "72": -0.10604765555774788,
              "73": 0.05278387304433339,
              "74": -0.09966354799197329,
              "75": 0.1795703984019955,
              "76": -0.10877433428499171,
              "77": -0.10734956074898008,
              "78": -0.18059143552091522,
              "79": 0.04291970726058101,
              "80": -0.11311956164356855,
              "81": -0.08573183359679852,
              "82": 0.09592392070291163,
              "83": -0.09560172082121415,
              "84": -0.10947203926971721,
              "85": -0.06031478777278464,
              "86": 0.07334825449661662,
              "87": -0.12041541833408194,
              "88": 0.1802680489010488,
              "89": -0.02246029046909355,
              "90": 0.09624459385248708,
              "91": 0.18462747196068324,
              "92": -0.1977862000579239,
              "93": 0.1275766637409397,
              "94": -0.1286856130254054,
              "95": -0.15690068737689214,
              "96": 0.06127623155132494,
              "97": 0.13091257728297143,
              "98": 0.17877074647205035,
              "99": -0.10687230801059347,
              "100": 0.16752038318711146,
              "101": 0.02360577349123405,
              "102": 0.09163577122905607,
              "103": 0.07195711374606696,
              "104": 0.04582353733350912,
              "105": 0.10355810029543067,
              "106": -0.048853676365393325,
              "107": 0.09615358645141205,
              "108": -0.19420348648811786,
              "109": 0.1407188986677803,
              "110": -0.17102606001245385,
              "111": 0.14075003202034453,
              "112": -0.15511681326431745,
              "113": 0.09668594748236004,
              "114": 0.10206384503522115,
              "115": 0.10956032330349531,
              "116": 0.05188571827593131,
              "117": -0.1749691393238617,
              "118": 0.04922460335436534,
              "119": 0.16578821454660347,
              "120": -0.17075705158609958,
              "121": -0.17220085097376442,
              "122": -0.04483748797160999,
              "123": 0.03709572480461433,
              "124": -0.08439282106323849,
              "125": 0.1699879593893569,
              "126": -0.12590371079614243,
              "127": 0.08678635245466017,
              "128": 0.15791147216349619,
              "129": 0.09570874599767312,
              "130": -0.029633166216229564,
              "131": 0.10364559105781636,
              "132": 0.17993163785468094,
              "133": 0.12911347232510542,
              "134": 0.10093896180644141,
              "135": -0.10302678980570902,
              "136": 0.1486089485713949,
              "137": -0.045725474927164785,
              "138": 0.14837381911139783,
              "139": 0.024683775430214633,
              "140": -0.16554429976662097,
              "141": -0.06583450056049982,
              "142": -0.12241344268965373,
              "143": 0.14005088211636343,
              "144": -0.04743775988102462,
              "145": -0.13611541506359592,
              "146": -0.10898721307020426,
              "147": -0.19504684436483744,
              "148": 0.046323854653620745,
              "149": -0.1965669128546626,
              "150": 0.17206004160729257,
              "151": 0.0865278380346005,
              "152": -0.15274978129540573,
              "153": 0.18318856408066467,
              "154": 0.12025856360991866,
              "155": 0.11984975718456953,
              "156": -0.060019009543085776,
              "157": 0.034965878282208165,
              "158": -0.03967644742596099,
              "159": -0.07096508114772096,
              "160": 0.16945236404044836
            }
          },
          "4": {
            "bias": 0.17883566812361174,
            "weights": {
              "0": 0.18004864820480287,
              "1": -0.03309114227945686,
              "2": -0.08557801560205736,
              "3": -0.08725915283228844,
              "4": 0.11341842002049775,
              "5": 0.0875766886849974,
              "6": -0.015311523069636413,
              "7": 0.12272710800486157,
              "8": -0.03609041470650354,
              "9": -0.0697769321926563,
              "10": -0.09602323817525679,
              "11": -0.03528510103903764,
              "12": -0.20079453331908095,
              "13": -0.14468413241145925,
              "14": -0.05887887987343587,
              "15": 0.19099671199727758,
              "16": 0.002117399835425199,
              "17": 0.1220415258217647,
              "18": -0.16229068705161057,
              "19": -0.04850237387503698,
              "20": -0.08146068630628173,
              "21": -0.14259952087579938,
              "22": 0.17719438228466472,
              "23": 0.14789841968130188,
              "24": 0.1292507344849883,
              "25": 0.10568669200767539,
              "26": -0.14139553491431522,
              "27": -0.005670672973644378,
              "28": 0.17914355564541568,
              "29": -0.09851098541104394,
              "30": 0.014077152461068755,
              "31": -0.13513823159016924,
              "32": 0.13046991516926273,
              "33": -0.14708207583720395,
              "34": -0.08419479470184232,
              "35": -0.06411865353135408,
              "36": -0.20170085989785433,
              "37": -0.15799437921636061,
              "38": 0.06783869361235795,
              "39": 0.08939632751897113,
              "40": -0.04171078709383564,
              "41": -0.09546937549218303,
              "42": -0.15754646595637423,
              "43": 0.01953508855517015,
              "44": 0.14483037678162267,
              "45": -0.0197938107923945,
              "46": -0.10787357112596364,
              "47": -0.12182819811978268,
              "48": -0.0314434978499516,
              "49": -0.055309984931071754,
              "50": -0.17732990992101003,
              "51": 0.08928222368493625,
              "52": -0.08567144596024837,
              "53": -0.16094849407622894,
              "54": -0.11851531108165761,
              "55": -0.17574833823883548,
              "56": 0.039936091022228,
              "57": -0.04424050241180411,
              "58": 0.18393135643848038,
              "59": -0.17513186172551423,
              "60": -0.00422736578565997,
              "61": -0.19203236686333047,
              "62": 0.030288459190147457,
              "63": 0.15590094510674027,
              "64": 0.10446639238219142,
              "65": -0.0903233769260983,
              "66": -0.02544776428647889,
              "67": -0.06824934879900928,
              "68": -0.14154694266794945,
              "69": -0.055598287164063454,
              "70": 0.03848590947932425,
              "71": -0.09133387884555305,
              "72": 0.16173814260955463,
              "73": -0.08387906172689033,
              "74": -0.20250966264769338,
              "75": -0.06306401398911277,
              "76": 0.05987233692147209,
              "77": -0.04190191985838756,
              "78": -0.16459487362457373,
              "79": 0.0604624937302949,
              "80": 0.17173064509895752,
              "81": -0.12588232379377354,
              "82": 0.13146825783827418,
              "83": 0.11225205540458004,
              "84": 0.12410437704190164,
              "85": -0.1698362794182351,
              "86": 0.029527174440867523,
              "87": -0.12414552383408721,
              "88": -0.105605489353571,
              "89": 0.16627438231714955,
              "90": -0.001875082219502229,
              "91": -0.040989473002621186,
              "92": -0.011076037904975473,
              "93": -0.01633666823573156,
              "94": -0.017616916801250056,
              "95": 0.19621804425732453,
              "96": 0.14388441290806103,
              "97": -0.05464024190027362,
              "98": 0.033944225199181235,
              "99": -0.1729097765364307,
              "100": -0.18203708616940953,
              "101": -0.19347765347907384,
              "102": 0.07390940497100738,
              "103": 0.04199993059183392,
              "104": 0.0651548087636133,
              "105": 0.1373778416863043,
              "106": 0.08923857497067464,
              "107": 0.021467237538727084,
              "108": -0.0634797849338713,
              "109": 0.1764915163913507,
              "110": 0.025958439941678572,
              "111": -0.11091585778895505,
              "112": 0.030436723707643762,
              "113": 0.1542106756325616,
              "114": -0.18213073818227926,
              "115": -0.0680638834391635,
              "116": 0.19701293329562544,
              "117": -0.1090949092620434,
              "118": 0.017975964018938802,
              "119": -0.0420292329830764,
              "120": -0.19020151905592608,
              "121": -0.0026976314967142004,
              "122": -0.012567470025459732,
              "123": -0.16600023210119674,
              "124": -0.18123163472630505,
              "125": 0.11592465968928486,
              "126": 0.13224584704030606,
              "127": -0.1981491280998857,
              "128": 0.1455982104130296,
              "129": -0.17085891037666673,
              "130": -0.04971664367807771,
              "131": 0.1189284728217987,
              "132": -0.1406986608302256,
              "133": 0.030404443943418846,
              "134": 0.17574080404594916,
              "135": 0.1425474379101125,
              "136": 0.0072026212737202186,
              "137": 0.11488838332342294,
              "138": 0.09943814555014716,
              "139": 0.08286812067471686,
              "140": -0.04510225239700885,
              "141": 0.09004919704680696,
              "142": 0.08513089099518169,
              "143": -0.16126276777305212,
              "144": -0.14535304078714126,
              "145": -0.19573541344207845,
              "146": 0.07481312072236128,
              "147": -0.06430512498334352,
              "148": -0.19080544190134194,
              "149": -0.17077803295148897,
              "150": -0.1711033577521522,
              "151": 0.06259556699403848,
              "152": 0.1283395278813084,
              "153": -0.001152446474335378,
              "154": 0.11510609080172211,
              "155": 0.003161154495385046,
              "156": 0.008239299561354689,
              "157": 0.006918698074389522,
              "158": -0.06905693127772877,
              "159": -0.01605578952389761,
              "160": 0.06374235553217954
            }
          },
          "5": {
            "bias": 0.1962255381017288,
            "weights": {
              "0": -0.08617034871861644,
              "1": -0.005957018676486601,
              "2": 0.12129589718894869,
              "3": 0.1324252166062017,
              "4": 0.09415931828310159,
              "5": -0.09890809039929382,
              "6": -0.19601612760564344,
              "7": 0.19609840166598244,
              "8": 0.08513003359797122,
              "9": -0.05741516018193625,
              "10": 0.16015545235350173,
              "11": 0.06995406559592636,
              "12": 0.07803767675800023,
              "13": -0.033912694961345455,
              "14": -0.12965184831568896,
              "15": 0.06758781551541573,
              "16": 0.06933806789404102,
              "17": -0.1085085273629331,
              "18": -0.15894652691000083,
              "19": -0.18832719781828916,
              "20": -0.07893247520423731,
              "21": -0.19049790745421952,
              "22": 0.0517109866480913,
              "23": -0.02154665722393381,
              "24": -0.036763280893943796,
              "25": -0.05063152161910732,
              "26": 0.12638224293631883,
              "27": 0.02624348063716321,
              "28": -0.06464505095433243,
              "29": -0.013411635478834772,
              "30": -0.07334061835241173,
              "31": -0.07960541532034272,
              "32": -0.09176361625584299,
              "33": -0.19295799158598784,
              "34": -0.1840599888912942,
              "35": -0.09383317047152111,
              "36": 0.03595622475206227,
              "37": -0.12872327932536248,
              "38": 0.18637423065601683,
              "39": 0.19528525892510445,
              "40": 0.1165504818265618,
              "41": -0.148601589916188,
              "42": 0.12775990069382345,
              "43": 0.1161839671268427,
              "44": -0.11954069558429581,
              "45": -0.014809318517739284,
              "46": 0.19481996034224025,
              "47": 0.008326273492150309,
              "48": -0.12661216545444554,
              "49": 0.0556374359101308,
              "50": 0.08668921422348819,
              "51": 0.12339863335797414,
              "52": -0.11287070085802092,
              "53": 0.10668508783577117,
              "54": -0.017983277973046826,
              "55": 0.014732923570422614,
              "56": -0.19414848341954952,
              "57": -0.10111417063581148,
              "58": -0.14262681025369023,
              "59": -0.1372550433437937,
              "60": -0.17090762517936745,
              "61": -0.09833802981233643,
              "62": 0.18761497570737024,
              "63": 0.05323068152340812,
              "64": -0.17129170287807496,
              "65": 0.11931162268550882,
              "66": 0.08963502323825664,
              "67": -0.021153568089804363,
              "68": -0.17198300232300104,
              "69": 0.024651940680303998,
              "70": 0.01752263825658762,
              "71": 0.15526723608626153,
              "72": -0.09288053070086955,
              "73": -0.1358496724820292,
              "74": -0.1109938489116827,
              "75": 0.030527020132210266,
              "76": 0.011794821245671541,
              "77": -0.13413862689465475,
              "78": -0.13742300929576054,
              "79": 0.1595086083667961,
              "80": -0.0927793654937811,
              "81": 0.024535829716572994,
              "82": -0.19526845371424195,
              "83": 0.04357579727036189,
              "84": 0.19645700523157755,
              "85": 0.15615991077222685,
              "86": -0.16625948614138567,
              "87": -0.055345244574814184,
              "88": -0.14815106464174915,
              "89": -0.05708966421895547,
              "90": -0.14577517625586595,
              "91": -0.004323938900441652,
              "92": 0.09626381255142169,
              "93": -0.11263240125339073,
              "94": -0.03535312475817156,
              "95": -0.08060586832395117,
              "96": -0.17345576328110057,
              "97": -0.06632756758871566,
              "98": 0.19422432257128627,
              "99": -0.04010451284689887,
              "100": -0.04956300829488521,
              "101": 0.14900707627645055,
              "102": -0.13701993619114605,
              "103": 0.023607416207343156,
              "104": 0.1750972318866309,
              "105": -0.0508947068469849,
              "106": -0.1314749564400897,
              "107": -0.10846336735624239,
              "108": -0.1685499181946581,
              "109": 0.19014960380012477,
              "110": 0.07934656821015494,
              "111": 0.1605452849035636,
              "112": -0.18174560697531092,
              "113": 0.04874410001393715,
              "114": -0.18270635957469572,
              "115": 0.13063227804004296,
              "116": 0.07468624524078955,
              "117": 0.18120840986053138,
              "118": -0.01149584633689567,
              "119": 0.11651307692727182,
              "120": 0.012491092643882755,
              "121": 0.08461120586441169,
              "122": 0.13756931827304034,
              "123": 0.0923489252669162,
              "124": -0.1268963062073264,
              "125": -0.053971488815543964,
              "126": -0.09501022668833596,
              "127": -0.13948350005977073,
              "128": -0.008131088977360491,
              "129": -0.1475596259171889,
              "130": -0.051205371329835055,
              "131": -0.11598084311481059,
              "132": 0.05471232506571453,
              "133": -0.0831602250356631,
              "134": 0.00000791294468718487,
              "135": -0.18070740539023816,
              "136": -0.12398400686519351,
              "137": -0.015331090433011467,
              "138": -0.08156597912157561,
              "139": 0.004729843188872209,
              "140": 0.07094478333030914,
              "141": 0.17889392618549185,
              "142": 0.12879848755301357,
              "143": 0.11183501060536262,
              "144": 0.12585023061316045,
              "145": -0.0833942804086368,
              "146": -0.06842732170650694,
              "147": -0.011206576766859457,
              "148": 0.0402273585222922,
              "149": 0.0591816359303415,
              "150": 0.13909971410507158,
              "151": -0.1902839620662316,
              "152": 0.1944327581996891,
              "153": 0.06270543797638814,
              "154": -0.13847098818765002,
              "155": 0.11498137385572096,
              "156": -0.07786410410321283,
              "157": 0.09727918840365851,
              "158": -0.0717621929645231,
              "159": -0.045475678738666536,
              "160": 0.17878483082464333
            }
          },
          "6": {
            "bias": 0.11634050521199664,
            "weights": {
              "0": 0.09162009074272362,
              "1": 0.08377875735005119,
              "2": 0.1463230234827469,
              "3": -0.07909170244438081,
              "4": 0.19379435015400395,
              "5": 0.008123132449954473,
              "6": -0.07435459931940927,
              "7": 0.14254473395149242,
              "8": 0.17854405897307646,
              "9": -0.12592721733101814,
              "10": 0.13553237402683027,
              "11": 0.08389662745921707,
              "12": 0.138134850510684,
              "13": -0.127004096416854,
              "14": -0.010442633424452497,
              "15": -0.14652323170156478,
              "16": 0.18051853277658944,
              "17": -0.1705014669493777,
              "18": 0.06692667556731668,
              "19": -0.17167380160873522,
              "20": -0.03161925195209257,
              "21": 0.02079560979642046,
              "22": -0.08221052631216094,
              "23": -0.13311392712186915,
              "24": 0.10238568785830642,
              "25": -0.07163492338215013,
              "26": 0.20504784461015024,
              "27": -0.1081817270534569,
              "28": -0.1797029316525788,
              "29": 0.09829561943235979,
              "30": 0.17253692443259122,
              "31": -0.13591140164408327,
              "32": 0.19548978087924812,
              "33": 0.00728744170339437,
              "34": 0.09625371771699742,
              "35": -0.09042935885776296,
              "36": 0.03821645959159371,
              "37": 0.0867153605657323,
              "38": -0.1669215713160121,
              "39": 0.169223202909292,
              "40": 0.060488262111337704,
              "41": -0.029192162335006804,
              "42": 0.02262404711328815,
              "43": -0.011466620037989398,
              "44": 0.05148220794446087,
              "45": 0.16552776947837716,
              "46": 0.0796248106246003,
              "47": -0.005258365117050754,
              "48": 0.06909502137845072,
              "49": -0.08149350818867757,
              "50": -0.14982234689235582,
              "51": 0.06045412082574087,
              "52": -0.17737681582847797,
              "53": 0.1409998586241051,
              "54": -0.13101668877216993,
              "55": 0.05002885594625593,
              "56": 0.182498845083831,
              "57": 0.018621092280091768,
              "58": -0.1041871478318254,
              "59": 0.14148400990284296,
              "60": 0.193634509041622,
              "61": 0.03662267563942299,
              "62": 0.11898102707894816,
              "63": 0.17632825246115832,
              "64": -0.15176589462059792,
              "65": -0.12968031049739184,
              "66": -0.016208675633715825,
              "67": 0.05789612546422189,
              "68": -0.10644290760292256,
              "69": -0.10856864094143856,
              "70": -0.09466777571654278,
              "71": 0.2086684395304938,
              "72": -0.1895143772636627,
              "73": 0.13714251274046155,
              "74": 0.17346723512289033,
              "75": -0.1681176918381779,
              "76": 0.16414478211201253,
              "77": -0.01682801541900533,
              "78": 0.07315253000240052,
              "79": -0.08460129705595472,
              "80": 0.06076069633255441,
              "81": -0.06445477496005467,
              "82": 0.15580811256738175,
              "83": 0.17620615996879208,
              "84": 0.18326608783068565,
              "85": 0.0048121142674644535,
              "86": 0.12644944670428612,
              "87": -0.013023625917172965,
              "88": 0.14623581420164583,
              "89": -0.162725099253336,
              "90": 0.08689055529541749,
              "91": 0.17340798753051284,
              "92": 0.03328459879255783,
              "93": 0.19404665365088689,
              "94": 0.038706849812456194,
              "95": 0.10512220288698969,
              "96": 0.16599196259174362,
              "97": 0.14783915130451403,
              "98": -0.11612414648211998,
              "99": -0.10181722447364945,
              "100": 0.10008462292088993,
              "101": 0.0008290947284231154,
              "102": -0.10397117450808892,
              "103": -0.015484769882505314,
              "104": 0.07255748599104049,
              "105": -0.1912536484245839,
              "106": -0.146836232234713,
              "107": 0.10074237929901805,
              "108": -0.03474301067043875,
              "109": 0.04705376111091704,
              "110": 0.13975255545013365,
              "111": 0.007890561479947895,
              "112": -0.034326026152687775,
              "113": -0.1851031829041529,
              "114": -0.006313695313841065,
              "115": -0.11451316026697377,
              "116": 0.17059776969220736,
              "117": 0.011595604293201058,
              "118": -0.01905313934854929,
              "119": -0.04212030214747457,
              "120": 0.0432497639561638,
              "121": -0.08705749964384704,
              "122": 0.07578600628253582,
              "123": -0.07836020443956385,
              "124": -0.10325706511162183,
              "125": 0.09095309108788806,
              "126": -0.004631672777221904,
              "127": -0.06472224668312242,
              "128": 0.06642405936265816,
              "129": 0.20383004924908826,
              "130": -0.16950766980092327,
              "131": 0.009698069560778485,
              "132": 0.032913408856134745,
              "133": -0.15046215949584327,
              "134": -0.11577767992057765,
              "135": 0.1947456092304567,
              "136": -0.005673720893363655,
              "137": -0.16523109291452975,
              "138": -0.15628108540035218,
              "139": -0.027466174780896354,
              "140": -0.00846057559644999,
              "141": 0.11373994723830572,
              "142": 0.09131709749817853,
              "143": 0.018106966414193397,
              "144": 0.0346237474681269,
              "145": 0.14645049628682028,
              "146": 0.04316834309761786,
              "147": 0.11009481102621005,
              "148": 0.035266127064663935,
              "149": 0.028068295604208513,
              "150": -0.14771096364602146,
              "151": 0.005529906183170617,
              "152": 0.1699574584678921,
              "153": 0.19024231613587736,
              "154": -0.020568615548355724,
              "155": -0.16224610517153984,
              "156": 0.10250995862076419,
              "157": 0.1103211181600617,
              "158": 0.0954719707573634,
              "159": 0.04281838544394149,
              "160": -0.16714860425710842
            }
          },
          "7": {
            "bias": 0.017231294487557246,
            "weights": {
              "0": 0.013086798114928563,
              "1": 0.18700031914760537,
              "2": -0.0012509936161314386,
              "3": 0.032705161662067904,
              "4": 0.12643963205210637,
              "5": -0.016569091750144503,
              "6": 0.13083449507413902,
              "7": -0.11689568482512373,
              "8": -0.08554703627733404,
              "9": 0.18298908067820044,
              "10": 0.14683715922785878,
              "11": 0.07527339564676884,
              "12": -0.1268465177842779,
              "13": -0.03484452308839517,
              "14": 0.08048749216710306,
              "15": 0.1709046241082125,
              "16": 0.1617971709308991,
              "17": 0.15174053502073875,
              "18": -0.02381141127308311,
              "19": -0.06881224186827578,
              "20": 0.1577013145656577,
              "21": -0.05474360725188324,
              "22": -0.0022099482123560405,
              "23": 0.09253059416356983,
              "24": 0.13812350106189045,
              "25": -0.10450339989479669,
              "26": -0.18225081358031192,
              "27": -0.0938922906718985,
              "28": -0.059138224079623554,
              "29": 0.17052463114060026,
              "30": 0.05405171476205424,
              "31": -0.10989663502281188,
              "32": -0.02424907789243358,
              "33": 0.10678927321342636,
              "34": -0.006988983544445919,
              "35": 0.1808901018931517,
              "36": -0.022436916234840922,
              "37": 0.11018664194649044,
              "38": -0.010022815484999184,
              "39": 0.006748135348492295,
              "40": -0.0005016143199856052,
              "41": -0.09853731445270292,
              "42": 0.18757483883626533,
              "43": -0.12280855601493372,
              "44": -0.03220697870187179,
              "45": -0.04161691617693842,
              "46": 0.12980631251889888,
              "47": -0.008665335241867795,
              "48": -0.07836712725624752,
              "49": -0.1807267995256496,
              "50": -0.13081610448901063,
              "51": 0.030045145695804125,
              "52": 0.11622495471351635,
              "53": -0.001437733691254966,
              "54": -0.13625475864772393,
              "55": 0.00981877748068265,
              "56": -0.13204573694797536,
              "57": -0.016078010142838196,
              "58": 0.13537099415531256,
              "59": 0.03960922387244019,
              "60": 0.06968019055207177,
              "61": -0.13788781467843184,
              "62": 0.09423186386565409,
              "63": -0.10650854131659561,
              "64": 0.08724006913363118,
              "65": -0.07010346142247592,
              "66": -0.13186039089746474,
              "67": 0.15798651112834394,
              "68": 0.16791861987889853,
              "69": 0.07162373774808362,
              "70": -0.1836243427823925,
              "71": -0.1406629740595683,
              "72": -0.17383876966183995,
              "73": -0.1365250116314422,
              "74": 0.078089350428274,
              "75": 0.05885282489665196,
              "76": -0.07282298033147308,
              "77": -0.09751749476353366,
              "78": 0.03431473232502544,
              "79": -0.13331525360208682,
              "80": -0.03550232830042929,
              "81": -0.18143403785253698,
              "82": 0.07638954734625324,
              "83": 0.04518883891321595,
              "84": -0.12427465890582497,
              "85": -0.1080833940599622,
              "86": -0.1526688522135436,
              "87": 0.1607202847634245,
              "88": -0.010889073141922391,
              "89": 0.19099561078025612,
              "90": -0.050728649509486225,
              "91": 0.09934109753014568,
              "92": 0.15167401178155238,
              "93": -0.014864086580272023,
              "94": -0.10446088654824288,
              "95": -0.029634411351301695,
              "96": -0.12054515823726597,
              "97": -0.09928175208930701,
              "98": 0.08262385579241244,
              "99": 0.020388244712910026,
              "100": 0.05930210460040336,
              "101": 0.09316850554358165,
              "102": 0.18006798029998453,
              "103": -0.045524980738723395,
              "104": 0.029050949418470653,
              "105": 0.15764413384910447,
              "106": 0.13931341644411058,
              "107": -0.14003481505825952,
              "108": -0.15077247899418023,
              "109": 0.19629130393927685,
              "110": -0.17499323135760828,
              "111": -0.028612726706202938,
              "112": -0.1364849007202666,
              "113": -0.13731934649935837,
              "114": -0.12035069715048234,
              "115": 0.18675857412474006,
              "116": -0.021305500795691296,
              "117": 0.04292688456303076,
              "118": -0.1250626410309092,
              "119": 0.0749278598396149,
              "120": 0.15618568330771213,
              "121": 0.1262789774886151,
              "122": -0.07296358723863633,
              "123": -0.15372122264057222,
              "124": -0.0017029560594405326,
              "125": 0.0062971294480014105,
              "126": -0.038935235759424806,
              "127": 0.18043995250328673,
              "128": -0.19467297750910104,
              "129": 0.09691965800681941,
              "130": -0.18616210267857308,
              "131": -0.1264091057124479,
              "132": -0.09105734709137606,
              "133": -0.1321455995700368,
              "134": -0.11870415718515642,
              "135": -0.18601719925041565,
              "136": -0.07151765177335782,
              "137": -0.10671877276391732,
              "138": -0.002172350956593512,
              "139": -0.07457014328810044,
              "140": -0.036888555179904935,
              "141": -0.09775048753869811,
              "142": 0.08382785184152904,
              "143": -0.15873900852519232,
              "144": 0.1307817064637385,
              "145": -0.06148931496748123,
              "146": 0.02665726193746929,
              "147": -0.011967360258561573,
              "148": -0.17394974507777475,
              "149": 0.033072806557314566,
              "150": 0.01502872861976755,
              "151": 0.03698689723724403,
              "152": -0.03474562965560685,
              "153": -0.10428928241306126,
              "154": -0.11895415037437042,
              "155": -0.15172212356497258,
              "156": -0.0036371899604026965,
              "157": -0.01350808493078131,
              "158": 0.14687876899845057,
              "159": -0.09843039719519744,
              "160": 0.10792313032809875
            }
          },
          "8": {
            "bias": 0.009215199344321566,
            "weights": {
              "0": 0.16043625250379986,
              "1": 0.04946556034186055,
              "2": 0.13994120357120227,
              "3": -0.07668368556902319,
              "4": 0.11777501890190656,
              "5": 0.027099873570692472,
              "6": -0.0778416532354939,
              "7": -0.1723866901502903,
              "8": -0.1780199160812219,
              "9": 0.20225423718030874,
              "10": 0.1943306579626462,
              "11": 0.13410716377521348,
              "12": 0.11670425443744814,
              "13": 0.0576376430482309,
              "14": -0.13170431097653607,
              "15": 0.16870774691242038,
              "16": -0.13473839527922502,
              "17": -0.08109331793071034,
              "18": 0.05322395110852222,
              "19": -0.09015058838429878,
              "20": -0.07585069548950317,
              "21": -0.0217250609292864,
              "22": -0.07334338922725049,
              "23": 0.13041821064342862,
              "24": -0.07566822393204409,
              "25": -0.1378886710772735,
              "26": -0.008365296205414763,
              "27": 0.10524481396932518,
              "28": 0.03241524196718158,
              "29": -0.10498280373771968,
              "30": -0.09164077090226364,
              "31": 0.13159686575765198,
              "32": 0.09247265359647808,
              "33": 0.1661740022904785,
              "34": -0.1727999984659508,
              "35": -0.005579923909478602,
              "36": 0.12157433999438451,
              "37": 0.15871400745862216,
              "38": -0.066387218030385,
              "39": 0.10911540130091861,
              "40": 0.08313952873578621,
              "41": 0.10651587993513033,
              "42": -0.08250527137550522,
              "43": -0.08035216359533841,
              "44": -0.07952135334583144,
              "45": 0.10401106750871349,
              "46": 0.12451693302004037,
              "47": 0.15424372132153538,
              "48": 0.19809664093611523,
              "49": -0.030651638609778518,
              "50": 0.121633544470506,
              "51": -0.12226638819403313,
              "52": -0.16652298631686727,
              "53": 0.14525323768188242,
              "54": -0.08650390854008008,
              "55": -0.12947215768790774,
              "56": -0.11934330973012844,
              "57": -0.1084614104624235,
              "58": 0.19963885490699673,
              "59": 0.00571575954315529,
              "60": 0.17926685519405144,
              "61": -0.05822187839915863,
              "62": 0.07921054860604218,
              "63": 0.1663133597662267,
              "64": 0.0020927198882885576,
              "65": -0.11101886357666728,
              "66": 0.03821934325247682,
              "67": -0.005307502731764577,
              "68": 0.053988762153925125,
              "69": -0.1099902686586648,
              "70": 0.012488876344228067,
              "71": -0.07307198404100919,
              "72": 0.11019644000913008,
              "73": -0.002116361563036622,
              "74": 0.17751283653460498,
              "75": -0.015252362334586319,
              "76": -0.13536169185052516,
              "77": -0.0809306551247107,
              "78": -0.018440944028909362,
              "79": 0.08595388128237076,
              "80": 0.21002391417372454,
              "81": 0.19912003803047684,
              "82": 0.09256530185343839,
              "83": 0.13563012268684213,
              "84": 0.16791272345339012,
              "85": -0.0004268768815709105,
              "86": 0.0025473373572774062,
              "87": -0.19133998199131838,
              "88": 0.027535322721527835,
              "89": -0.10286237390484189,
              "90": -0.05792991136863478,
              "91": -0.1822758145985779,
              "92": 0.1407404597830224,
              "93": -0.07975119311265334,
              "94": -0.0869477365078486,
              "95": -0.0014878540024419592,
              "96": -0.09156786778269918,
              "97": 0.19941367296101897,
              "98": -0.005781242392309109,
              "99": -0.058007114517046196,
              "100": 0.19253281207787618,
              "101": 0.12389644656523056,
              "102": 0.016083800472778773,
              "103": -0.015466718941487033,
              "104": 0.16345957655519125,
              "105": -0.12960271054950018,
              "106": -0.10681361796078927,
              "107": 0.05851150566602305,
              "108": 0.21821751554949437,
              "109": -0.05895140572025537,
              "110": -0.15289404804123288,
              "111": -0.06076672355188225,
              "112": 0.11347501694933367,
              "113": 0.008963373944905977,
              "114": 0.08478719844545358,
              "115": 0.20961892827857706,
              "116": 0.01710756462263924,
              "117": -0.10536762399527438,
              "118": -0.0658389749232928,
              "119": 0.03137233952057274,
              "120": 0.10219200392813776,
              "121": -0.039723175648000174,
              "122": 0.17119370033065237,
              "123": 0.0027600540274617833,
              "124": -0.038166316486265894,
              "125": -0.11877957024521062,
              "126": 0.11738189263112835,
              "127": 0.023668366659402494,
              "128": -0.10142417569326949,
              "129": -0.09575947256179702,
              "130": -0.1830448759995982,
              "131": -0.11275968971434035,
              "132": 0.19184427864621598,
              "133": 0.10447481168046419,
              "134": 0.07431794935040043,
              "135": 0.07333405570903868,
              "136": 0.18877989250885915,
              "137": -0.1589342316511091,
              "138": -0.07735400704261282,
              "139": 0.21287755732553562,
              "140": 0.16384114869048028,
              "141": -0.10845557626075945,
              "142": -0.12161546731990198,
              "143": 0.02614735736316907,
              "144": 0.20762234708218097,
              "145": 0.11282974021471356,
              "146": -0.10284978580155996,
              "147": 0.12191795079770573,
              "148": -0.13171831936532039,
              "149": 0.16306865695554992,
              "150": -0.1284666636748976,
              "151": 0.05482175934130823,
              "152": 0.205686457035927,
              "153": -0.16764728253027958,
              "154": 0.10779836381085954,
              "155": -0.01199688373785253,
              "156": 0.17977164742422755,
              "157": -0.06276679714550715,
              "158": -0.1624310895509894,
              "159": 0.07504115787568953,
              "160": -0.12741661144685074
            }
          },
          "9": {
            "bias": -0.1375593196638718,
            "weights": {
              "0": 0.1894971302860468,
              "1": 0.10991150416677573,
              "2": 0.030533951636584813,
              "3": -0.00981360036336828,
              "4": 0.07424357867485765,
              "5": 0.005576776063742002,
              "6": 0.02774008164300426,
              "7": -0.13092779319423706,
              "8": -0.0245648465866884,
              "9": 0.10116769232247576,
              "10": -0.11791311934583315,
              "11": -0.17845925146500713,
              "12": 0.07271840876770069,
              "13": 0.12400923355596463,
              "14": 0.2004531910031588,
              "15": 0.07598458379845807,
              "16": -0.15881132158065447,
              "17": -0.1691510930263456,
              "18": -0.01623777931969684,
              "19": 0.07913023855589206,
              "20": 0.07387079031710853,
              "21": 0.13401321622089446,
              "22": -0.15592691480190787,
              "23": 0.030201765394312203,
              "24": 0.06725447603733989,
              "25": 0.08130345449272981,
              "26": -0.12435708843603235,
              "27": -0.004616250325331598,
              "28": 0.16061144033412644,
              "29": 0.06857665241957625,
              "30": -0.09783287599218381,
              "31": 0.10957208263224784,
              "32": -0.18537356926059664,
              "33": 0.17604418841010167,
              "34": 0.1635852366196799,
              "35": -0.11989556601760072,
              "36": -0.07738476264839901,
              "37": 0.12982052544816458,
              "38": 0.1109488671114999,
              "39": 0.13822353739948948,
              "40": -0.13853989551581733,
              "41": -0.1685320962569578,
              "42": 0.017295739832548084,
              "43": 0.16355294413184845,
              "44": 0.034199372836191046,
              "45": 0.003034273978840682,
              "46": -0.03743364419568494,
              "47": 0.050250764417015974,
              "48": -0.10977183603205866,
              "49": 0.10617285239089674,
              "50": -0.10623113775877598,
              "51": 0.0523144645184071,
              "52": 0.11474110273679058,
              "53": -0.14585571942390743,
              "54": 0.18986230130695128,
              "55": 0.16798498287983651,
              "56": -0.09183389310992615,
              "57": 0.18354138002005096,
              "58": 0.15840998994210004,
              "59": -0.08313133165711012,
              "60": -0.11785622186991437,
              "61": -0.008474914790876297,
              "62": -0.18729268353991232,
              "63": 0.1743840173271182,
              "64": -0.056963163696686345,
              "65": 0.04683457543028485,
              "66": 0.061385410925392195,
              "67": -0.19112030734261995,
              "68": -0.18957698607608164,
              "69": -0.12925501037554213,
              "70": 0.16807905973966142,
              "71": 0.08107124688984946,
              "72": 0.04176789875922648,
              "73": -0.10458534435732851,
              "74": 0.05402586413834757,
              "75": -0.021840022870552093,
              "76": -0.1472153023150031,
              "77": 0.199310287639209,
              "78": -0.15054996202836707,
              "79": 0.08361967363466505,
              "80": -0.11155470118204519,
              "81": -0.03231274385638492,
              "82": 0.1595162080079063,
              "83": -0.08731052451729018,
              "84": -0.09280583959860458,
              "85": 0.17228779685206513,
              "86": -0.09877647711821998,
              "87": 0.175179521610219,
              "88": -0.040766389458332816,
              "89": -0.09644950810698881,
              "90": 0.0868549745964154,
              "91": 0.1719346637213358,
              "92": 0.15592288810489777,
              "93": 0.09862639338359722,
              "94": 0.17610125676274097,
              "95": 0.027287976185333403,
              "96": -0.19391891381574983,
              "97": -0.17858974818893655,
              "98": 0.09417990360171387,
              "99": -0.17921387261093558,
              "100": -0.11572647247638264,
              "101": 0.07466785773360092,
              "102": -0.1689194649911759,
              "103": -0.062311025473473475,
              "104": -0.08149168455602769,
              "105": -0.019461949543841492,
              "106": -0.01805711326648197,
              "107": -0.11017147077206516,
              "108": 0.19656783572808464,
              "109": 0.042953842063624646,
              "110": 0.07506416919256445,
              "111": 0.1391279012834514,
              "112": -0.05066503559779046,
              "113": -0.10952882164795713,
              "114": 0.11750231427675638,
              "115": -0.1959866511849498,
              "116": 0.058094001941708454,
              "117": -0.06260241777975448,
              "118": -0.12497276877009866,
              "119": 0.03411515810526393,
              "120": 0.005303870077319301,
              "121": 0.13620601770663557,
              "122": -0.1489956641790787,
              "123": -0.06544363993339684,
              "124": -0.14633428135977908,
              "125": -0.11673165033569777,
              "126": -0.15881681027076064,
              "127": 0.16210579376364365,
              "128": 0.05162893213445215,
              "129": -0.0352733359403845,
              "130": 0.1652094498213806,
              "131": -0.04719495945247964,
              "132": 0.06515908630095246,
              "133": 0.19347973613352404,
              "134": -0.14303591295239798,
              "135": -0.17533525899783844,
              "136": 0.19077497161558832,
              "137": -0.03857042516027821,
              "138": 0.10536169968706945,
              "139": 0.17072029833663555,
              "140": -0.09087308009766443,
              "141": 0.005282129825747724,
              "142": -0.12215898966416713,
              "143": 0.09466183748907123,
              "144": 0.18792791904701803,
              "145": 0.022443085874597892,
              "146": 0.135131017191068,
              "147": 0.04041768481589102,
              "148": 0.1532662532815485,
              "149": -0.1612184010387631,
              "150": -0.04092901390193978,
              "151": -0.01724991366130675,
              "152": -0.013435996963741552,
              "153": 0.1395496508623624,
              "154": -0.07678616118762212,
              "155": -0.0575229230712701,
              "156": 0.06072662115710748,
              "157": 0.18332104387243328,
              "158": 0.18646947064152258,
              "159": -0.02211182875919195,
              "160": 0.18748346601432364
            }
          },
          "10": {
            "bias": -0.03370050400589299,
            "weights": {
              "0": 0.08872826733082786,
              "1": -0.0733424682731067,
              "2": 0.1085893345660108,
              "3": 0.11080613499595295,
              "4": 0.002658481984280468,
              "5": -0.054807589982280254,
              "6": 0.11680053850504282,
              "7": -0.06194352941489512,
              "8": -0.1298213017244355,
              "9": -0.02655263383027516,
              "10": -0.15126979217193448,
              "11": 0.03615380264214314,
              "12": -0.06413884098276555,
              "13": 0.19276246366842176,
              "14": -0.14411784734269834,
              "15": -0.01989028564970451,
              "16": -0.01997631298591537,
              "17": 0.05278992232599865,
              "18": -0.03032695242150175,
              "19": 0.18733624155650572,
              "20": 0.11619095763165238,
              "21": -0.06874348035215522,
              "22": 0.13559611137139846,
              "23": 0.04608896598420791,
              "24": 0.13255407937001445,
              "25": 0.12932306933905244,
              "26": 0.12883816508599488,
              "27": -0.061564093941319654,
              "28": -0.11606963734068043,
              "29": 0.1792669856405261,
              "30": 0.021212971662987527,
              "31": -0.1513961011328124,
              "32": 0.19236738159417208,
              "33": -0.1764242767779506,
              "34": 0.18970444522526236,
              "35": -0.10287415014439417,
              "36": 0.1722290207570221,
              "37": -0.16717152392590157,
              "38": -0.13854961395326618,
              "39": 0.21060540758864738,
              "40": -0.14289622182188552,
              "41": -0.1694459746433617,
              "42": 0.16548678039133308,
              "43": 0.10416265070357028,
              "44": -0.0010114825668461243,
              "45": 0.18157866604465556,
              "46": 0.19822108744283448,
              "47": 0.1560268567374921,
              "48": -0.01100307658552679,
              "49": -0.15583075742379607,
              "50": -0.1321624713360026,
              "51": -0.16884724246546245,
              "52": -0.19300992397168057,
              "53": -0.09643227213527818,
              "54": 0.08199617725525384,
              "55": 0.20165840060897336,
              "56": 0.0064292420098454265,
              "57": -0.14484325481203877,
              "58": -0.14161544101711357,
              "59": 0.017462504644979063,
              "60": -0.07651052644058327,
              "61": 0.01413257423936991,
              "62": -0.15684142029466006,
              "63": -0.011174864639838404,
              "64": 0.20948690367080164,
              "65": 0.16239938656738803,
              "66": -0.14792997117173193,
              "67": -0.14592630288070063,
              "68": -0.16203210914715555,
              "69": -0.09844285927582286,
              "70": 0.04781622533510907,
              "71": -0.18085820776925304,
              "72": 0.1977815148495714,
              "73": 0.10919247032703809,
              "74": 0.025701030858205662,
              "75": -0.06074170009160327,
              "76": 0.12448354841838351,
              "77": -0.0184298765534627,
              "78": -0.026635767537739066,
              "79": -0.1384566979741476,
              "80": 0.12721701850085332,
              "81": -0.08826912730146057,
              "82": -0.031095278223570128,
              "83": 0.022752789517503234,
              "84": 0.10965346802118188,
              "85": -0.060572770157754086,
              "86": 0.1126334504648372,
              "87": 0.0804009379367557,
              "88": -0.17022452565746687,
              "89": -0.06708736441630213,
              "90": -0.1208890098916013,
              "91": -0.07740835112011686,
              "92": 0.19785008989485645,
              "93": -0.03255431699224647,
              "94": 0.07407961475359838,
              "95": 0.20038744079298182,
              "96": 0.08037276335643544,
              "97": -0.12462474236929144,
              "98": 0.16053720006439098,
              "99": 0.028001298242323464,
              "100": -0.06046262487372542,
              "101": -0.06720027447408498,
              "102": 0.0023406595534650283,
              "103": 0.15783061716937763,
              "104": 0.07306618470949174,
              "105": -0.08653427874459674,
              "106": 0.12921672815241528,
              "107": 0.12659396294688913,
              "108": 0.022328445251593648,
              "109": 0.11668967521655665,
              "110": 0.004982005948299342,
              "111": -0.03312430893631972,
              "112": 0.020179933074076947,
              "113": -0.1556190304853766,
              "114": -0.16779488975073065,
              "115": -0.10689953851118833,
              "116": -0.18748596197639558,
              "117": -0.04859906576405354,
              "118": 0.026594411228753213,
              "119": 0.18258163946509562,
              "120": 0.01854630756030183,
              "121": -0.14330231166319338,
              "122": -0.0023308742140534513,
              "123": 0.09038298766639752,
              "124": 0.08604220209762051,
              "125": 0.06919072130660904,
              "126": 0.03295301280882324,
              "127": -0.09706241520232274,
              "128": -0.0284907363848579,
              "129": 0.13791328372370262,
              "130": 0.16869716384190597,
              "131": -0.09625744957131682,
              "132": 0.052939228431593724,
              "133": 0.13643639910388997,
              "134": -0.19809247428396543,
              "135": -0.14366209043598258,
              "136": 0.0415825282985555,
              "137": -0.1754561071471912,
              "138": -0.17631104231054928,
              "139": 0.05408037117527742,
              "140": 0.03581461265264621,
              "141": -0.181895712214935,
              "142": -0.08652066391840656,
              "143": 0.17625784008999876,
              "144": -0.13188512839807692,
              "145": 0.07243534954496529,
              "146": -0.060337835179104966,
              "147": 0.06920743511499373,
              "148": -0.023514854288131437,
              "149": 0.12045238534948131,
              "150": 0.07936023602118819,
              "151": 0.1867260327320376,
              "152": -0.16299013776767926,
              "153": 0.054791531541259264,
              "154": 0.0782591338925777,
              "155": 0.06367496323155696,
              "156": -0.02369614336910018,
              "157": 0.007606487799292342,
              "158": 0.20278944570158589,
              "159": 0.055110313283639877,
              "160": -0.09684226299668415
            }
          },
          "11": {
            "bias": -0.1729608082626971,
            "weights": {
              "0": 0.1758535079487899,
              "1": 0.1205445909095253,
              "2": 0.15415073222313547,
              "3": 0.028811095147326774,
              "4": 0.12451380024359435,
              "5": -0.17262694648729954,
              "6": -0.06520460933810589,
              "7": -0.053826026268518325,
              "8": -0.1547261307754376,
              "9": 0.1581964865058369,
              "10": -0.14980356600926706,
              "11": -0.03426672961758418,
              "12": 0.10292173903334864,
              "13": 0.14238432514348873,
              "14": -0.1140249863804284,
              "15": 0.07203154171254159,
              "16": 0.12609712756948654,
              "17": -0.04603312409084952,
              "18": -0.10464163637464037,
              "19": 0.10915467403185988,
              "20": -0.047510726786341856,
              "21": -0.13055462611200475,
              "22": 0.010981570030236065,
              "23": 0.059060894085994325,
              "24": 0.08144200946638745,
              "25": -0.17874494806087135,
              "26": 0.19438034388238729,
              "27": -0.009385879143472635,
              "28": -0.07180098436238722,
              "29": 0.20619842231945246,
              "30": -0.07477026747613219,
              "31": -0.12750038990119864,
              "32": -0.058460540102920275,
              "33": -0.1744406504280546,
              "34": -0.1722840188569889,
              "35": 0.05138501918181191,
              "36": -0.06899184720560834,
              "37": -0.18370066128361892,
              "38": 0.17347047952905942,
              "39": 0.0022891261821101987,
              "40": -0.18601008538644087,
              "41": -0.008699821973448641,
              "42": -0.11739770191663332,
              "43": -0.037688693900697026,
              "44": -0.18502639759213882,
              "45": -0.11133525593075902,
              "46": 0.14601417078669923,
              "47": -0.19220087665127336,
              "48": -0.024973798022252483,
              "49": -0.1478412405611783,
              "50": 0.10521724093162221,
              "51": -0.07769125871649817,
              "52": 0.1612807034977901,
              "53": -0.0743651481404836,
              "54": -0.12717847140987507,
              "55": -0.14943566149041873,
              "56": 0.0695745373120519,
              "57": -0.14172391581901603,
              "58": -0.18893865608432275,
              "59": -0.1900873869927017,
              "60": -0.016865225308162764,
              "61": -0.045409232130866437,
              "62": 0.195948575723769,
              "63": 0.07125260829929286,
              "64": 0.01295276620299031,
              "65": -0.15361086493262233,
              "66": 0.1858645549616614,
              "67": -0.09801232874418643,
              "68": 0.14854581648839496,
              "69": -0.09489330343975061,
              "70": 0.13821410695203581,
              "71": 0.19362556531154498,
              "72": -0.13857151493123404,
              "73": 0.07074325128177378,
              "74": -0.15657595733776206,
              "75": -0.1665661322043947,
              "76": -0.18188080307115656,
              "77": 0.032575914528639546,
              "78": 0.1591234394478353,
              "79": 0.18552853405760186,
              "80": 0.03222833669382361,
              "81": -0.023254175857541307,
              "82": 0.03363331986450829,
              "83": -0.14755921021001822,
              "84": 0.0064168918609124785,
              "85": 0.0019614602514834347,
              "86": 0.15067588783023875,
              "87": 0.18512524312003528,
              "88": -0.07100698932793739,
              "89": 0.08471476082007022,
              "90": -0.0155386056069974,
              "91": -0.00842758462378675,
              "92": 0.15139746313100538,
              "93": -0.009365009543466953,
              "94": 0.0013483039891009961,
              "95": 0.12714875203500672,
              "96": -0.06423732787993464,
              "97": -0.0649869583799722,
              "98": 0.003266524642226451,
              "99": -0.028432960662287305,
              "100": 0.04119872774033434,
              "101": 0.1631677645446915,
              "102": 0.1595937980187071,
              "103": -0.14160525984453193,
              "104": 0.16197207997588708,
              "105": -0.11013073027835876,
              "106": 0.14990838586695568,
              "107": 0.08488742692304628,
              "108": 0.05648080095082086,
              "109": 0.06617125861533257,
              "110": 0.06850537348736756,
              "111": 0.027240158487471428,
              "112": 0.09973014157291718,
              "113": -0.08433436493395015,
              "114": -0.03187597537745027,
              "115": 0.1277896663831641,
              "116": 0.11664522742095937,
              "117": 0.08298708851084226,
              "118": -0.19639006172223084,
              "119": 0.14161773948567064,
              "120": 0.14846051398750443,
              "121": 0.12382800729853453,
              "122": 0.08762043519535002,
              "123": 0.18558340946066484,
              "124": -0.0948058554871191,
              "125": 0.12514728493902258,
              "126": 0.15920159024450536,
              "127": -0.13954784950463534,
              "128": 0.07228074970912433,
              "129": -0.08549004807006029,
              "130": 0.055447091789856726,
              "131": -0.045429783730248786,
              "132": -0.12907196934523263,
              "133": 0.031252919653539796,
              "134": -0.1330819163788908,
              "135": -0.05906051552892421,
              "136": 0.002509374178459425,
              "137": 0.12515632938141677,
              "138": 0.11835239996730168,
              "139": -0.01061330296892148,
              "140": 0.18155401101537785,
              "141": 0.17916227706413101,
              "142": 0.1417553334670834,
              "143": 0.14557611397287243,
              "144": 0.08108912301349216,
              "145": 0.05572267817515833,
              "146": -0.09964976686290873,
              "147": -0.04621751671139694,
              "148": 0.08398365632746406,
              "149": -0.058499470085770104,
              "150": 0.13666821715702326,
              "151": 0.13573314608546366,
              "152": 0.11043401202557579,
              "153": 0.06319451327795023,
              "154": 0.1764627497859856,
              "155": -0.14373752720343927,
              "156": 0.1273264716058073,
              "157": -0.08791389252894313,
              "158": 0.08535406266857837,
              "159": -0.03539511011786941,
              "160": 0.016169026496233873
            }
          },
          "12": {
            "bias": -0.07501302530242153,
            "weights": {
              "0": -0.1615022810623305,
              "1": -0.02044320972629636,
              "2": -0.0768786513623955,
              "3": 0.07200124926919484,
              "4": -0.07649405264014392,
              "5": 0.025538747533817064,
              "6": -0.11446250391926481,
              "7": -0.0382118343962955,
              "8": -0.16236895224593936,
              "9": -0.01596077305450165,
              "10": 0.17344076944630404,
              "11": -0.08806745968853412,
              "12": 0.00677583053000094,
              "13": -0.009546004141574341,
              "14": 0.12633377454404557,
              "15": 0.14885886818595487,
              "16": -0.1640621172577263,
              "17": -0.07115447247510209,
              "18": -0.15359226573833665,
              "19": -0.05400858944955728,
              "20": 0.1495762266283569,
              "21": -0.0017807731818016408,
              "22": -0.10895552504691243,
              "23": 0.152248966866795,
              "24": -0.08480743306401044,
              "25": -0.1765437074224153,
              "26": -0.09374515710545879,
              "27": -0.08593107452413963,
              "28": -0.12345828866185565,
              "29": 0.12296093984041288,
              "30": -0.0555913122598791,
              "31": -0.12271824766405835,
              "32": -0.19100196783193624,
              "33": 0.13733788282204626,
              "34": -0.042549112119316605,
              "35": 0.03678765083772867,
              "36": -0.04303589754981664,
              "37": -0.009228317600287986,
              "38": -0.17560536943310104,
              "39": 0.13435091630925766,
              "40": -0.11241727224224414,
              "41": -0.04801887247568414,
              "42": 0.2048346077579269,
              "43": 0.17962972199722166,
              "44": -0.029440036310896544,
              "45": -0.09296022685938689,
              "46": -0.0994780921434977,
              "47": -0.1442250771472553,
              "48": -0.030268402509302638,
              "49": -0.16564119321709364,
              "50": 0.031184702976453888,
              "51": -0.15114706138195647,
              "52": 0.17789899684181248,
              "53": 0.03358849506097974,
              "54": 0.1796136919997272,
              "55": 0.08716373173539849,
              "56": 0.035304908763947346,
              "57": -0.0991876423375903,
              "58": 0.06671587867881831,
              "59": -0.14380817942616367,
              "60": 0.16518189435552683,
              "61": -0.03997322765342216,
              "62": -0.11867493327645644,
              "63": 0.015442123009826676,
              "64": 0.18612808541085785,
              "65": 0.16754663911154513,
              "66": 0.12864910469533797,
              "67": 0.04438940044945571,
              "68": 0.18065056736927748,
              "69": -0.03950791632913329,
              "70": -0.07529032600987287,
              "71": -0.06116959989444571,
              "72": 0.02722965453999763,
              "73": -0.012027180332194166,
              "74": 0.10757993006707187,
              "75": -0.09250455916986083,
              "76": 0.0853070758935207,
              "77": -0.1239038926572889,
              "78": -0.14466881080140512,
              "79": -0.1405612934132031,
              "80": -0.05570501119315372,
              "81": -0.06198417586465826,
              "82": 0.1519313699356379,
              "83": 0.08777430327983055,
              "84": -0.007451468121035799,
              "85": -0.07313376609279315,
              "86": -0.008099306540733873,
              "87": 0.15565196299962336,
              "88": 0.11389311094624133,
              "89": 0.029883080010987897,
              "90": -0.15248508863436105,
              "91": 0.13944118238747516,
              "92": -0.1896636746165153,
              "93": 0.0016761803238176604,
              "94": 0.1678597518034734,
              "95": -0.0726257959095272,
              "96": 0.055875182496120945,
              "97": -0.1216201390760253,
              "98": -0.007198941211523157,
              "99": -0.06741912775306777,
              "100": -0.06385436848685369,
              "101": -0.12917714173446837,
              "102": -0.127990131317723,
              "103": -0.19034605860906376,
              "104": -0.10592840198546802,
              "105": 0.023551478326452217,
              "106": -0.07351138903589569,
              "107": -0.18987112626920116,
              "108": 0.12710538809181918,
              "109": 0.07407197808653371,
              "110": 0.03525042962034449,
              "111": -0.029176103986656366,
              "112": -0.02433633451118095,
              "113": -0.11196773893849493,
              "114": -0.18439474564351177,
              "115": -0.1254969384309709,
              "116": -0.10040779933213209,
              "117": 0.19056215326136394,
              "118": -0.08750265109374973,
              "119": -0.10524001438483777,
              "120": -0.026282800683446298,
              "121": -0.11511196133583941,
              "122": -0.06199992231365317,
              "123": 0.10147404574553696,
              "124": -0.1783937095057263,
              "125": -0.024569204232691752,
              "126": 0.06920860666906105,
              "127": 0.0704067200555841,
              "128": 0.14357486907833192,
              "129": -0.06859635874558247,
              "130": 0.03716061603365838,
              "131": -0.08348739758736606,
              "132": -0.05072603509067603,
              "133": -0.05067431485378137,
              "134": 0.12790610570700367,
              "135": 0.02959672339433785,
              "136": 0.11832471961779414,
              "137": 0.07002957208462388,
              "138": 0.05293957504107053,
              "139": -0.16853688134060935,
              "140": 0.18673410169827476,
              "141": -0.09414193916787822,
              "142": 0.029439047718037924,
              "143": 0.011084279329666644,
              "144": -0.0699062821626193,
              "145": 0.06662175885062208,
              "146": -0.07387375118103438,
              "147": -0.18332252620480724,
              "148": 0.06753438920869088,
              "149": -0.014738035250785155,
              "150": 0.09646643837452995,
              "151": -0.009574134769614199,
              "152": 0.06000429353082326,
              "153": 0.18570271473442043,
              "154": -0.15711283507440002,
              "155": -0.10196698284178216,
              "156": 0.15913410306366743,
              "157": -0.06582514839374576,
              "158": -0.15151314739971294,
              "159": -0.0007449146245236414,
              "160": 0.09476302016331511
            }
          },
          "13": {
            "bias": 0.07446894947322101,
            "weights": {
              "0": -0.15053173825903177,
              "1": -0.1390970570099013,
              "2": 0.09797572363370272,
              "3": 0.059578827416911104,
              "4": 0.08483840488000419,
              "5": 0.03545348009925106,
              "6": 0.1060356533180852,
              "7": 0.11487344008668456,
              "8": -0.183707265495955,
              "9": -0.11355498488474844,
              "10": -0.06842217421384644,
              "11": -0.12405329403828268,
              "12": 0.15328212886157333,
              "13": -0.16156249459943486,
              "14": -0.1575399377756982,
              "15": 0.19907891388509522,
              "16": -0.010721206213607738,
              "17": -0.061908712844158185,
              "18": -0.16622517475706483,
              "19": 0.0657075632578396,
              "20": 0.15582148831346873,
              "21": -0.0927579176748912,
              "22": -0.13971940935374336,
              "23": 0.0590369103542394,
              "24": 0.14055207981899834,
              "25": -0.033331917182127094,
              "26": 0.007622081693628463,
              "27": 0.012760340072320669,
              "28": 0.19043495287704235,
              "29": -0.10776767309517607,
              "30": 0.10309288697345848,
              "31": 0.09308373744539812,
              "32": 0.00660507447957992,
              "33": 0.17731909639054852,
              "34": -0.028450280933300907,
              "35": -0.1267161828977232,
              "36": -0.14116192366851632,
              "37": 0.18781103536271473,
              "38": -0.03426179084687596,
              "39": 0.10129009498032163,
              "40": -0.1117623365764353,
              "41": 0.10825488422586593,
              "42": -0.01436454265021225,
              "43": -0.1145784756742445,
              "44": 0.10630170352991149,
              "45": -0.09168361578494726,
              "46": 0.08798167605026883,
              "47": -0.1423309541046182,
              "48": 0.06782236538537066,
              "49": 0.044785389679699104,
              "50": -0.0882894389144076,
              "51": 0.1613342734284731,
              "52": -0.018534642315612172,
              "53": -0.015824909066995834,
              "54": -0.017211091385171403,
              "55": -0.09451203309113644,
              "56": -0.10819741738203831,
              "57": -0.17068647036320028,
              "58": -0.19131070482490894,
              "59": -0.03850422890775206,
              "60": 0.04724388239681548,
              "61": 0.13087330838799446,
              "62": -0.18687816837349822,
              "63": 0.10186608806233222,
              "64": -0.19252587857996786,
              "65": -0.009927862898741518,
              "66": -0.008466728894100505,
              "67": -0.13619490856662406,
              "68": -0.010345496618905319,
              "69": 0.07217023151702714,
              "70": -0.07310090038924867,
              "71": -0.056745440517999624,
              "72": -0.1774376825288877,
              "73": 0.158820485656298,
              "74": -0.041325762396836954,
              "75": -0.016498653524014084,
              "76": -0.14694336385928997,
              "77": 0.039869637847996374,
              "78": 0.07068313527527902,
              "79": 0.16737735320771654,
              "80": -0.17656114465617131,
              "81": 0.07030438095659414,
              "82": 0.16403844293552586,
              "83": -0.1586278532786519,
              "84": 0.13708211915844504,
              "85": -0.039365250043967764,
              "86": -0.19196597120741807,
              "87": -0.06666673861825803,
              "88": 0.09883742380677579,
              "89": 0.1078223089036199,
              "90": -0.13271139154037612,
              "91": -0.07894674813098178,
              "92": -0.19719836103339017,
              "93": 0.08922128501487993,
              "94": -0.0690789713801201,
              "95": -0.01066464048349181,
              "96": -0.13062240284987978,
              "97": -0.039035843542655276,
              "98": 0.15249898802282924,
              "99": 0.16780853227019998,
              "100": -0.09486172265032293,
              "101": -0.1839336092814725,
              "102": 0.1073843440035367,
              "103": -0.18629346364504096,
              "104": 0.06255027060184863,
              "105": -0.08627340063779007,
